{"type":"NeuralNetwork","sizes":[18,16,16,4],"layers":[{"weights":[],"biases":[]},{"weights":[[0.8672140836715698,-2.068608283996582,2.668318033218384,1.629705786705017,1.5956066846847534,0.2722044289112091,-0.4493040442466736,-4.4393534660339355,0.1553085297346115,-1.4718059301376343,-3.358339548110962,1.9461989402770996,-1.059748649597168,3.1519644260406494,-0.16648872196674347,1.2418462038040161,-2.3167760372161865,1.8022832870483398],[0.8907925486564636,-4.224552154541016,-2.70723557472229,1.0926254987716675,-2.297872304916382,1.6449546813964844,2.150409698486328,-0.607416033744812,-0.2915465533733368,-1.0584295988082886,-2.220686435699463,-1.2521817684173584,6.302053451538086,-0.3215470612049103,2.5023891925811768,0.4615485966205597,2.9363021850585938,0.6625969409942627],[-3.293246030807495,3.7037248611450195,-1.7840795516967773,-2.044816017150879,0.45429331064224243,-0.6936984062194824,5.023272514343262,-5.012478828430176,2.330373764038086,-1.4213835000991821,0.47921547293663025,-1.571325659751892,0.327345073223114,0.9363683462142944,-2.1408047676086426,2.221731185913086,3.241091251373291,-2.6531014442443848],[2.6580452919006348,-4.072760581970215,-1.0315879583358765,-2.130490779876709,-6.938277721405029,-5.714335918426514,2.3219027519226074,-0.06388629972934723,0.8933534622192383,5.086495876312256,-3.819941282272339,-1.283206820487976,0.02272365614771843,1.6270034313201904,0.1580357551574707,5.305027961730957,-2.7617204189300537,2.2726221084594727],[-1.9933853149414062,0.9803450703620911,-0.5007691979408264,4.2787275314331055,-2.9807772636413574,2.439455986022949,-2.9022698402404785,0.6134693622589111,0.2397521734237671,-4.675539970397949,0.18071091175079346,0.15863637626171112,4.67818546295166,0.005442738067358732,-1.373449683189392,0.06910328567028046,-2.6314809322357178,-4.854926586151123],[-1.401841163635254,4.369229316711426,-0.14981919527053833,2.39786958694458,-1.609063744544983,-1.8112025260925293,2.371264696121216,-0.25273555517196655,-0.5840474963188171,-2.5779106616973877,1.4003369808197021,2.703662633895874,-0.6007744669914246,1.123353362083435,1.3814373016357422,-0.1648463010787964,-0.7554330825805664,0.7731438875198364],[-0.8862971663475037,0.09804915636777878,-0.04941345751285553,0.7003036737442017,1.709730863571167,-3.068354606628418,1.8561805486679077,-4.728916645050049,-2.4782543182373047,-4.836230278015137,0.37683558464050293,-0.5139358043670654,1.2761017084121704,2.2887420654296875,1.1478068828582764,-1.5355476140975952,3.3503878116607666,-3.1936280727386475],[0.5857746005058289,0.6866217851638794,-1.1852734088897705,6.751476764678955,-0.3809422552585602,-1.2015249729156494,0.46106967329978943,-0.4360467493534088,-0.29892241954803467,0.8622817397117615,-0.9453136920928955,-4.815339088439941,8.706388473510742,-1.6548069715499878,-0.16830039024353027,-3.353581428527832,1.4825000762939453,-4.046298980712891],[1.4013516902923584,2.9499056339263916,1.1305736303329468,-1.275990605354309,-1.9349192380905151,-0.3942578434944153,0.036689091473817825,-4.371933937072754,0.5765619277954102,-1.2451688051223755,3.5698819160461426,-0.3278086185455322,0.3790421187877655,0.10912129282951355,1.880893588066101,-1.7305809259414673,-1.440730333328247,-6.464920997619629],[1.4721723794937134,2.6147732734680176,-1.5918141603469849,2.095782995223999,3.2856218814849854,1.651740550994873,3.6131396293640137,3.02998948097229,-0.5523098111152649,1.23349928855896,-1.7744269371032715,-5.893312931060791,-2.073164939880371,-0.38224658370018005,0.059172213077545166,-0.46161946654319763,-0.04449280723929405,-0.18189497292041779],[0.326214075088501,7.171763896942139,-3.0581438541412354,6.165642261505127,0.7593667507171631,1.933048963546753,3.8980050086975098,1.5825238227844238,1.0818487405776978,-4.445716381072998,-1.8305200338363647,-0.9664525389671326,2.2439138889312744,-0.18218065798282623,1.9490206241607666,0.6201156973838806,-2.852457046508789,0.5765269994735718],[4.630603313446045,3.0068840980529785,0.9432505369186401,0.9782052040100098,-0.6736124753952026,3.2342076301574707,-2.6479673385620117,0.6749253273010254,2.097470283508301,0.42601269483566284,1.3649362325668335,0.527858555316925,0.10405947268009186,-0.37564581632614136,-3.0692102909088135,-0.9691043496131897,-1.632179617881775,-0.11481837928295135],[2.821286916732788,3.065323829650879,4.103496551513672,3.301102876663208,-1.7937606573104858,-2.6094775199890137,-6.207082271575928,-0.970025360584259,1.3278592824935913,0.05801742151379585,2.9961156845092773,-0.8316097855567932,4.440011501312256,-1.610815405845642,-4.188955307006836,-1.010113000869751,-1.5265223979949951,2.6236002445220947],[5.149592876434326,-6.568288803100586,-1.8653919696807861,-3.8825902938842773,2.140970230102539,0.3671288788318634,-1.8289642333984375,2.027918577194214,-0.5304751992225647,2.039630174636841,-1.3460423946380615,-0.11989803612232208,7.640571117401123,-0.6232879161834717,0.19003000855445862,-4.959601402282715,1.5709872245788574,-0.2552779018878937],[0.2638436257839203,-2.149142265319824,-0.22340762615203857,0.48512277007102966,3.2461094856262207,3.6083314418792725,6.7195000648498535,-2.1505415439605713,-3.0756077766418457,-2.8106284141540527,-1.6696690320968628,0.5557128190994263,-0.4697496294975281,2.7704381942749023,1.9104130268096924,-0.9629818201065063,1.5585222244262695,1.093178153038025],[7.992554664611816,-1.457635760307312,0.740753173828125,-1.0048753023147583,-0.11709147691726685,5.513408184051514,-0.524547278881073,-0.2936061918735504,-0.24051471054553986,-0.3739164471626282,-0.4226861298084259,0.3091450035572052,-0.9381244778633118,-3.3721888065338135,-0.29550793766975403,-2.0839104652404785,1.3109030723571777,2.626659393310547]],"biases":[-0.0989433154463768,-0.1337023824453354,0.02529310993850231,-0.012192022055387497,0.16616468131542206,0.002000621519982815,0.15095965564250946,0.08789633959531784,-0.1304253786802292,0.15259625017642975,-0.10380931198596954,0.1775866150856018,0.15184040367603302,-0.04113629087805748,0.11773816496133804,-0.08472352474927902]},{"weights":[[-2.298448085784912,2.2870919704437256,-0.516646683216095,2.7379932403564453,0.5113486051559448,-0.9399369359016418,0.5462736487388611,-0.16056567430496216,3.47135066986084,-3.8247478008270264,-5.532804012298584,-1.2172470092773438,-4.352803707122803,0.6684700846672058,2.7337560653686523,5.481410980224609],[1.5900582075119019,-0.30242931842803955,0.7736629247665405,2.0932140350341797,4.386714458465576,-1.5036202669143677,-1.5438331365585327,3.5912668704986572,3.2009029388427734,-4.799018383026123,2.330068349838257,-1.0816634893417358,-0.21796263754367828,1.8993746042251587,5.015870571136475,-1.5488520860671997],[0.9992062449455261,-1.3386824131011963,-0.7560681700706482,-5.093644618988037,6.295539379119873,1.2677662372589111,0.3500228822231293,2.9317734241485596,1.6005938053131104,-0.470328688621521,1.0156577825546265,4.293234825134277,1.1011179685592651,-1.9913015365600586,2.182985782623291,5.098979949951172],[-2.2664968967437744,-2.8418478965759277,2.1572277545928955,-0.7649127244949341,-3.683488368988037,3.8656578063964844,-1.5899739265441895,-1.5970607995986938,-1.1313722133636475,1.8646026849746704,-2.0383572578430176,-0.3749345541000366,-1.9983755350112915,1.4335049390792847,-0.1979169249534607,-4.067488193511963],[-0.0299995094537735,-0.6135026216506958,-0.24354059994220734,-1.3737491369247437,1.1235063076019287,1.8578230142593384,1.102878212928772,-0.16779479384422302,0.38212668895721436,0.3448726534843445,-3.1843066215515137,2.20760178565979,-2.5717289447784424,-3.0852043628692627,-0.6512477397918701,4.1141862869262695],[1.6910516023635864,-1.69321608543396,6.234103202819824,0.5842475295066833,-0.24859553575515747,-3.8020310401916504,-0.1896205097436905,1.297403335571289,3.508488893508911,0.9497726559638977,2.8883285522460938,-5.897463321685791,-0.22867290675640106,-3.6288368701934814,-5.475980758666992,-1.6268775463104248],[-1.0765063762664795,1.1911706924438477,0.05927065759897232,-3.411992073059082,4.814349174499512,-0.21042686700820923,-0.1307850033044815,0.1143803820014,3.841914415359497,-1.29732346534729,-0.7344723343849182,5.285579204559326,-0.018701527267694473,-0.2508295178413391,-0.9046435952186584,4.129037380218506],[-0.8649930357933044,-1.4449635744094849,2.074190855026245,0.16474394500255585,6.887903213500977,1.1800785064697266,1.3961561918258667,6.716115951538086,-0.6785244345664978,0.1271955817937851,-4.362071990966797,-2.852871894836426,1.8024667501449585,0.4619292616844177,3.0803470611572266,-4.9081130027771],[5.8271803855896,0.20213432610034943,7.900719165802002,-0.23174993693828583,-5.733864784240723,-2.3627169132232666,-2.4120078086853027,-1.6062182188034058,5.045960426330566,-1.3170912265777588,-1.387258529663086,-3.661839723587036,-3.18536114692688,-2.86728572845459,-4.196836948394775,-1.8498191833496094],[-0.32782790064811707,-3.464289426803589,-5.7374043464660645,3.140829563140869,1.143882155418396,1.0809816122055054,-0.20826467871665955,-2.4653563499450684,2.8175079822540283,-2.361140727996826,-0.6696967482566833,0.04998847842216492,-0.5572799444198608,-2.076688051223755,2.478530168533325,-0.4005664587020874],[-4.4277424812316895,2.973013401031494,2.7160277366638184,-1.3947181701660156,-0.9535573124885559,-5.985723495483398,-0.671042263507843,0.8727422952651978,-3.3953683376312256,3.073899030685425,0.14947070181369781,-0.7746183276176453,-0.47297272086143494,1.2446516752243042,2.3352346420288086,3.9750027656555176],[3.009300470352173,3.1263296604156494,-1.0077056884765625,0.2009153813123703,1.4376256465911865,-0.323434442281723,0.4070901572704315,-2.9025018215179443,3.5417206287384033,-4.985864639282227,1.5375219583511353,0.5936655402183533,-3.1661627292633057,0.2747902274131775,-0.1332612782716751,-4.037670135498047],[-6.037132263183594,6.169626235961914,-5.064154148101807,4.552380561828613,-3.1061882972717285,-3.4209110736846924,1.746843934059143,1.9488228559494019,-0.9765348434448242,6.789639949798584,-0.846561074256897,4.101304531097412,-0.4883928596973419,2.070777416229248,2.9920971393585205,-3.788961887359619],[2.0435729026794434,-2.227651834487915,-3.137849807739258,3.4178714752197266,-2.8148763179779053,3.5222342014312744,-0.2447897493839264,7.574644088745117,1.9042906761169434,-3.2957892417907715,-3.2701539993286133,-3.0745162963867188,-4.576583385467529,-6.2754364013671875,0.848416805267334,-0.5479719638824463],[-7.050495624542236,-2.1824750900268555,-0.03425505384802818,0.2478768676519394,2.3084299564361572,1.2117621898651123,-1.5532091856002808,-3.6635677814483643,-2.415954828262329,1.6750035285949707,-2.528644323348999,3.668794631958008,2.832120180130005,4.10206937789917,-0.9336656928062439,-4.432156085968018],[2.647803544998169,-4.1596245765686035,0.42531833052635193,-0.9105822443962097,-4.440488815307617,-0.6804028749465942,-0.49931028485298157,-5.186961650848389,-0.32277384400367737,0.935929536819458,-1.3187655210494995,-1.0459271669387817,1.3282597064971924,1.6518813371658325,2.1327016353607178,3.4962735176086426]],"biases":[0.07528328895568848,0.12268663942813873,-0.14599335193634033,-0.07328945398330688,0.13587434589862823,-0.04158783331513405,0.19650207459926605,-0.0992860421538353,0.07686109840869904,0.10676709562540054,0.13117516040802002,0.13291357457637787,0.1366093009710312,0.061498817056417465,-0.19988329708576202,0.06869321316480637]},{"weights":[[4.981106758117676,5.877972602844238,4.244329452514648,-12.961976051330566,5.986282825469971,-0.31099146604537964,-5.876457214355469,-8.024595260620117,-1.260299563407898,-1.9229439496994019,6.847194194793701,-3.7731759548187256,1.7798566818237305,-1.3343830108642578,2.3541507720947266,6.86295223236084],[-6.210341930389404,-2.5312094688415527,-1.0421102046966553,8.81348991394043,7.2808451652526855,2.136134386062622,-9.373653411865234,-0.09884767979383469,2.1904866695404053,1.2135931253433228,0.49601638317108154,5.251851558685303,7.35695219039917,-4.086281776428223,0.7181804776191711,16.160140991210938],[0.8316472768783569,0.7607604265213013,-0.8730113506317139,-8.435820579528809,-0.07448423653841019,4.749762535095215,1.2171646356582642,-2.3626248836517334,-0.6257547736167908,6.049642562866211,-4.613690376281738,6.899288654327393,-2.39694881439209,-1.7443193197250366,0.6989829540252686,-6.564708232879639],[-1.4127558469772339,2.6349244117736816,7.8856940269470215,-4.564146518707275,-7.744510650634766,-1.342694878578186,5.284110069274902,-1.7893863916397095,-7.590977668762207,-3.604766368865967,8.848830223083496,-6.555720806121826,3.0835838317871094,7.174658298492432,1.4001599550247192,-1.9463776350021362]],"biases":[-0.16962605714797974,-0.13088476657867432,0.06084821745753288,0.05260072648525238]}],"inputLookup":null,"inputLookupLength":0,"outputLookup":null,"outputLookupLength":0,"options":{"inputSize":18,"outputSize":4,"binaryThresh":0.5,"activation":"sigmoid","hiddenLayers":[16,16]},"trainOpts":{"activation":"sigmoid","iterations":20000,"errorThresh":0.005,"log":false,"logPeriod":10,"leakyReluAlpha":0.01,"learningRate":0.3,"momentum":0.1,"callbackPeriod":10,"timeout":"Infinity","beta1":0.9,"beta2":0.999,"epsilon":1e-8}}