{"type":"NeuralNetwork","sizes":[18,16,16,4],"layers":[{"weights":[],"biases":[]},{"weights":[[0.5574330687522888,-2.068608283996582,2.506155014038086,1.629705786705017,1.9446477890014648,-0.14974066615104675,-1.2579816579818726,-4.4393534660339355,0.1553085297346115,-1.4718059301376343,-3.358339548110962,1.9461989402770996,-1.059748649597168,3.1519644260406494,0.07163499295711517,1.2418462038040161,-1.758826732635498,1.8022832870483398],[0.8907925486564636,-4.224552154541016,-2.4379563331604004,1.0926254987716675,-2.8226583003997803,1.6449546813964844,2.150409698486328,-0.9932621121406555,-0.2444128841161728,-1.3444427251815796,-1.5180941820144653,-0.6816531419754028,6.302053451538086,0.5686560273170471,2.5023891925811768,-0.046174030750989914,2.9363021850585938,1.1587907075881958],[-3.293246030807495,3.7037248611450195,-1.3057187795639038,-2.5017659664154053,0.6001031994819641,-0.6936984062194824,5.023272514343262,-4.477773189544678,2.330373764038086,-1.4213835000991821,-0.35727450251579285,-1.3321589231491089,0.327345073223114,0.9363683462142944,-2.1408047676086426,2.221731185913086,3.0812995433807373,-2.6531014442443848],[4.348348140716553,-5.029345989227295,-0.3543185591697693,-2.130490779876709,-6.938277721405029,-5.183658599853516,1.5436869859695435,-1.2489666938781738,0.8933534622192383,5.086495876312256,-3.819941282272339,-1.283206820487976,0.24223017692565918,1.6270034313201904,-0.7235540747642517,4.608776092529297,-2.7617204189300537,2.2726221084594727],[-1.9933853149414062,0.9803450703620911,-0.5007691979408264,3.7112276554107666,-2.258899211883545,2.439455986022949,-2.007484197616577,0.6134693622589111,0.2397521734237671,-4.583968639373779,0.18071091175079346,0.14323922991752625,3.715296983718872,0.005442738067358732,-1.9309968948364258,0.06910328567028046,-2.6314809322357178,-4.692761421203613],[-1.250823736190796,4.369229316711426,-0.10662466287612915,2.39786958694458,-1.609063744544983,-1.8112025260925293,2.371264696121216,-0.02289535291492939,-0.8264247179031372,-3.124882698059082,2.385070562362671,2.703662633895874,-0.6007744669914246,1.123353362083435,1.302363634109497,-0.1648463010787964,-0.7311589121818542,0.9841486811637878],[0.03260679915547371,0.09804915636777878,-0.09716607630252838,0.6816322207450867,1.709730863571167,-3.068354606628418,1.8561805486679077,-4.728916645050049,-2.4782543182373047,-5.465670108795166,0.37683558464050293,-0.5139358043670654,0.9273746013641357,2.6642799377441406,1.1478068828582764,-1.4542244672775269,3.3503878116607666,-3.1936280727386475],[0.5857746005058289,1.5954186916351318,-0.5862756371498108,6.7935709953308105,-1.0728977918624878,-0.5657907128334045,0.46106967329978943,-0.4360467493534088,-0.29892241954803467,0.8622817397117615,-1.0734692811965942,-4.815339088439941,8.706388473510742,-1.6548069715499878,-0.6464345455169678,-2.673966884613037,1.4825000762939453,-4.331916809082031],[1.4013516902923584,2.9499056339263916,1.0651599168777466,-1.273211121559143,-1.526369571685791,-1.1244021654129028,-0.8891950249671936,-4.371933937072754,0.5765619277954102,-1.2451688051223755,3.5698819160461426,0.004268336109817028,0.6033422350883484,0.10912129282951355,1.880893588066101,-1.7305809259414673,-0.7243889570236206,-6.464920997619629],[1.4031788110733032,3.484410524368286,-1.5918141603469849,2.991895914077759,3.5612077713012695,1.651740550994873,3.6131396293640137,2.515636444091797,-0.5523098111152649,1.5308970212936401,-1.7744269371032715,-6.117021083831787,-1.8026930093765259,-1.258176326751709,0.059172213077545166,-0.46161946654319763,0.6535394787788391,-0.18189497292041779],[0.326214075088501,7.171763896942139,-3.0581438541412354,6.165642261505127,0.7593667507171631,2.0709826946258545,3.8980050086975098,1.5825238227844238,1.0818487405776978,-3.6305649280548096,-1.8305200338363647,-1.8374332189559937,1.7759065628051758,-0.18218065798282623,1.825578212738037,0.6201156973838806,-2.8349363803863525,0.5765269994735718],[4.630603313446045,3.0068840980529785,1.106840968132019,0.9782052040100098,-0.2968810498714447,3.2342076301574707,-2.6479673385620117,-0.10390480607748032,2.097470283508301,0.42601269483566284,1.3649362325668335,0.9853043556213379,0.10405947268009186,-0.9866210222244263,-3.0692102909088135,-0.9691043496131897,-1.632179617881775,-0.11481837928295135],[2.821286916732788,3.065323829650879,3.9682836532592773,3.301102876663208,-2.568605899810791,-3.4976768493652344,-6.707858085632324,-0.1425938606262207,1.2234708070755005,0.6177073121070862,2.9961156845092773,-0.8316097855567932,3.5331220626831055,-1.610815405845642,-4.573565483093262,-1.010113000869751,-1.5265223979949951,2.3202669620513916],[5.149592876434326,-6.568288803100586,-1.8653919696807861,-3.8825902938842773,2.140970230102539,0.3671288788318634,-1.8289642333984375,2.027918577194214,-1.269184947013855,2.039630174636841,-1.3460423946380615,-0.11989803612232208,7.640571117401123,-0.6232879161834717,0.023576758801937103,-4.01881217956543,1.2015818357467651,1.2304710149765015],[0.2638436257839203,-2.149142265319824,0.10574647784233093,0.48512277007102966,3.2461094856262207,3.4385719299316406,6.7195000648498535,-2.1505415439605713,-3.0756077766418457,-2.8106284141540527,-1.0383992195129395,0.5557128190994263,-0.4697496294975281,2.2753713130950928,1.8133540153503418,-0.9034097194671631,2.0663223266601562,0.8478753566741943],[7.992554664611816,-1.457635760307312,1.2323111295700073,-0.6743664741516113,-0.11709147691726685,4.6341423988342285,-0.3018169105052948,-0.2936061918735504,-0.24051471054553986,-0.3739164471626282,-0.4226861298084259,0.3091450035572052,-0.4590223729610443,-2.898601531982422,-0.29550793766975403,-1.6416738033294678,2.1665406227111816,2.626659393310547]],"biases":[-0.0989433154463768,-0.1337023824453354,0.02529310993850231,-0.012192022055387497,0.16616468131542206,0.002000621519982815,0.15095965564250946,0.08789633959531784,-0.1304253786802292,0.15259625017642975,-0.10380931198596954,0.1775866150856018,0.15184040367603302,-0.04113629087805748,0.11773816496133804,-0.08472352474927902]},{"weights":[[-2.298448085784912,2.2870919704437256,-0.516646683216095,2.7379932403564453,1.9584068059921265,-0.9399369359016418,0.23187851905822754,-0.09748513251543045,3.1224746704101562,-4.530807971954346,-5.263468265533447,-1.7674177885055542,-4.352803707122803,1.0307080745697021,2.7337560653686523,7.235104560852051],[1.5900582075119019,0.3868349492549896,0.7736629247665405,2.0932140350341797,4.386714458465576,-1.5036202669143677,-1.5438331365585327,2.180903196334839,3.2009029388427734,-4.9863691329956055,2.330068349838257,-1.0816634893417358,-0.4743804931640625,1.8993746042251587,5.015870571136475,-1.5488520860671997],[0.9992062449455261,-1.3386824131011963,-0.7560681700706482,-4.3061652183532715,6.295539379119873,1.2217857837677002,0.799014151096344,2.9317734241485596,1.4559528827667236,-0.5619292855262756,0.37270092964172363,3.7386882305145264,1.1011179685592651,-1.9913015365600586,2.182985782623291,5.098979949951172],[-2.2664968967437744,-2.6797516345977783,2.1572277545928955,-1.5572253465652466,-3.01130747795105,3.8656578063964844,-1.5899739265441895,-1.9889227151870728,-1.9662598371505737,1.8646026849746704,-2.0383572578430176,-0.3749345541000366,-1.186862587928772,1.4335049390792847,-0.1979169249534607,-4.174576282501221],[-0.384505033493042,-1.0850588083267212,0.4281008839607239,-1.3737491369247437,0.3783099949359894,1.8578230142593384,0.24543756246566772,-0.16779479384422302,-0.16479241847991943,0.5385208129882812,-3.1843066215515137,2.20760178565979,-2.5717289447784424,-2.6478660106658936,-0.6512477397918701,4.1141862869262695],[1.5241514444351196,-1.0399223566055298,6.6437201499938965,0.5842475295066833,0.7487956285476685,-4.729242324829102,-0.1896205097436905,1.297403335571289,3.508488893508911,-0.11694031208753586,3.1509149074554443,-6.720926284790039,0.582824170589447,-2.75747013092041,-4.855855941772461,-1.6268775463104248],[-1.0765063762664795,3.0200648307800293,0.05927065759897232,-3.411992073059082,4.814349174499512,-0.34718650579452515,-0.1307850033044815,0.1143803820014,4.7013983726501465,-1.8893868923187256,-0.9036229848861694,5.285579204559326,-0.018701527267694473,-0.2508295178413391,-0.9046435952186584,4.129037380218506],[-1.2809113264083862,-1.4449635744094849,2.271193027496338,-0.12910477817058563,6.876473903656006,0.6558981537818909,1.3961561918258667,6.908117294311523,0.24075087904930115,-0.5827202200889587,-4.160481929779053,-2.852871894836426,1.8024667501449585,-0.2636365294456482,3.0803470611572266,-4.9081130027771],[5.8271803855896,0.20213432610034943,7.385825157165527,-0.23174993693828583,-6.519431114196777,-2.6078217029571533,-1.4511044025421143,-1.6062182188034058,5.045960426330566,-1.3170912265777588,-1.387258529663086,-3.661839723587036,-4.167666435241699,-2.86728572845459,-4.852783679962158,-2.0970962047576904],[-0.32782790064811707,-3.464289426803589,-5.009448051452637,3.140829563140869,1.143882155418396,0.5231223702430725,-0.20826467871665955,-2.4653563499450684,1.8376363515853882,-1.5252923965454102,-0.33284690976142883,0.04998847842216492,-0.6483874917030334,-2.076688051223755,2.478530168533325,-0.557547926902771],[-4.4277424812316895,3.6411592960357666,2.676034927368164,-1.3947181701660156,-0.9535573124885559,-5.985723495483398,-0.671042263507843,0.8727422952651978,-3.3953683376312256,3.073899030685425,1.5444061756134033,-0.5581610798835754,-0.20889319479465485,1.2446516752243042,2.3352346420288086,3.9750027656555176],[3.009300470352173,3.1263296604156494,-0.8575825095176697,0.3105946183204651,0.29552969336509705,-0.323434442281723,0.45574039220809937,-2.2854056358337402,3.5417206287384033,-4.985864639282227,1.1647546291351318,0.5936655402183533,-3.1661627292633057,-0.31165048480033875,-0.1332612782716751,-4.044086456298828],[-5.469313144683838,6.169626235961914,-5.064154148101807,4.552380561828613,-2.1212568283081055,-3.4209110736846924,1.746843934059143,2.71730375289917,-1.1018455028533936,6.789639949798584,-0.846561074256897,4.101304531097412,-0.7592529654502869,2.070777416229248,2.098423957824707,-3.788961887359619],[2.0435729026794434,-2.227651834487915,-1.7746248245239258,4.987711429595947,-2.1432371139526367,2.114621877670288,-0.2447897493839264,7.574644088745117,1.606866717338562,-3.2957892417907715,-3.2701539993286133,-3.0745162963867188,-3.6295101642608643,-5.463738441467285,0.848416805267334,-0.5479719638824463],[-7.050495624542236,-2.6972899436950684,-0.03425505384802818,0.9881835579872131,2.3084299564361572,0.8553142547607422,-1.5532091856002808,-3.6635677814483643,-2.4609060287475586,0.9672974348068237,-2.528644323348999,3.668794631958008,2.832120180130005,4.10206937789917,-0.9336656928062439,-4.432156085968018],[2.647803544998169,-4.0852484703063965,0.814845621585846,0.2399493008852005,-4.440488815307617,-0.6804028749465942,-0.49931028485298157,-5.186961650848389,-0.35921919345855713,0.935929536819458,-1.7561625242233276,-0.5265949368476868,1.3282597064971924,1.6518813371658325,1.7861052751541138,3.4962735176086426]],"biases":[0.07528328895568848,0.12268663942813873,-0.14599335193634033,-0.07328945398330688,0.13587434589862823,-0.04158783331513405,0.19650207459926605,-0.0992860421538353,0.07686109840869904,0.10676709562540054,0.13117516040802002,0.13291357457637787,0.1366093009710312,0.061498817056417465,-0.19988329708576202,0.06869321316480637]},{"weights":[[4.825118064880371,6.074464797973633,3.8729279041290283,-13.581727981567383,6.111173629760742,0.21006551384925842,-6.624610424041748,-8.024595260620117,0.7755429148674011,-1.8052195310592651,5.9549126625061035,-5.339057445526123,2.5764989852905273,-1.5569086074829102,2.340780019760132,6.86295223236084],[-5.855630397796631,-2.3950722217559814,0.37997767329216003,8.935150146484375,5.1092848777771,2.7146100997924805,-9.427716255187988,-1.1820470094680786,1.682697057723999,1.3349860906600952,1.2727264165878296,4.727576732635498,6.684628486633301,-3.6294472217559814,0.07591157406568527,16.580995559692383],[0.38976413011550903,1.4294172525405884,-0.12792792916297913,-8.0062255859375,-1.6214971542358398,4.695413589477539,0.011030520312488079,-2.8644752502441406,0.5648581385612488,7.527234077453613,-2.460423469543457,7.6927032470703125,-2.252448320388794,-1.8813964128494263,0.023199142888188362,-7.407620429992676],[-1.5462987422943115,2.9337780475616455,6.758413791656494,-4.564146518707275,-8.457947731018066,-2.1783254146575928,4.938872337341309,-1.7893863916397095,-8.209712982177734,-2.1276304721832275,9.220890045166016,-7.207806587219238,2.087597608566284,6.476938247680664,1.6387739181518555,-4.297696113586426]],"biases":[-0.16962605714797974,-0.13088476657867432,0.06084821745753288,0.05260072648525238]}],"inputLookup":null,"inputLookupLength":0,"outputLookup":null,"outputLookupLength":0,"options":{"inputSize":18,"outputSize":4,"binaryThresh":0.5,"activation":"sigmoid","hiddenLayers":[16,16]},"trainOpts":{"activation":"sigmoid","iterations":20000,"errorThresh":0.005,"log":false,"logPeriod":10,"leakyReluAlpha":0.01,"learningRate":0.3,"momentum":0.1,"callbackPeriod":10,"timeout":"Infinity","beta1":0.9,"beta2":0.999,"epsilon":1e-8}}