{
    "type": "NeuralNetwork",
    "sizes": [2, 4, 4, 4],
    "layers": [{
        "weights": [],
        "biases": []
    }, {
        "weights": [
            [0.18048825860023499, -0.03845444694161415],
            [0.10992270708084106, 0.08509998768568039],
            [0.1997610330581665, -0.16935904324054718],
            [0.006925459019839764, -0.017870383337140083]
        ],
        "biases": [-0.08167629688978195, -0.006264971103519201, 0.07140444219112396, -0.09367649257183075]
    }, {
        "weights": [
            [0.09644096344709396, 0.027540171518921852, -0.0057785362005233765, 0.07715536653995514],
            [-0.007914175279438496, 0.19943581521511078, -0.0631851777434349, -0.007070788182318211],
            [0.07632911950349808, 0.012848341837525368, -0.15763378143310547, -0.15914547443389893],
            [-0.09534534066915512, 0.035978831350803375, 0.02336103282868862, 0.18072529137134552]
        ],
        "biases": [0.04889471083879471, 0.0012528619263321161, -0.1432689130306244, -0.17054249346256256]
    }, {
        "weights": [
            [-0.09415314346551895, -0.0364365391433239, 0.16723932325839996, -0.05411205813288689],
            [0.1547502726316452, 0.13544289767742157, -0.10022082179784775, 0.13234344124794006],
            [0.19034038484096527, -0.024628622457385063, -0.07971235364675522, 0.01437452808022499],
            [-0.12047495692968369, 0.06010022759437561, 0.01654849573969841, -0.1364261656999588]
        ],
        "biases": [-0.17995141446590424, -0.012636063620448112, -0.008823108859360218, -0.09948237985372543]
    }],
    "inputLookup": null,
    "inputLookupLength": 0,
    "outputLookup": null,
    "outputLookupLength": 0,
    "options": {
        "inputSize": 2,
        "outputSize": 4,
        "binaryThresh": 0.5,
        "activation": "sigmoid",
        "hiddenLayers": [4, 4]
    },
    "trainOpts": {
        "activation": "sigmoid",
        "iterations": 20000,
        "errorThresh": 0.005,
        "log": false,
        "logPeriod": 10,
        "leakyReluAlpha": 0.01,
        "learningRate": 0.3,
        "momentum": 0.1,
        "callbackPeriod": 10,
        "timeout": "Infinity",
        "beta1": 0.9,
        "beta2": 0.999,
        "epsilon": 1e-8
    }
}