{"type":"NeuralNetwork","sizes":[18,16,16,4],"layers":[{"weights":[],"biases":[]},{"weights":[[-0.3834109902381897,-2.068608283996582,1.5781866312026978,1.629705786705017,1.4971946477890015,-1.1216768026351929,-1.7121117115020752,-3.604377508163452,0.1553085297346115,-1.4718059301376343,-2.421173095703125,1.494582176208496,-1.0588769912719727,3.1519644260406494,0.07163499295711517,1.2418462038040161,-2.4560465812683105,1.8034623861312866],[0.8907925486564636,-3.7916147708892822,-2.4379563331604004,0.7003703117370605,-2.849400520324707,1.6449546813964844,3.067286968231201,-0.9932621121406555,-0.2444128841161728,-1.3444427251815796,-2.308298349380493,-1.2253613471984863,6.302053451538086,-0.14058388769626617,2.597325086593628,0.4615485966205597,1.532436490058899,0.6625969409942627],[-2.4843170642852783,3.7037248611450195,-1.7529513835906982,-2.959300994873047,-0.4683314263820648,-1.4808374643325806,5.023272514343262,-4.477773189544678,2.330373764038086,-1.4213835000991821,0.04799804091453552,-2.3145198822021484,-0.229527086019516,0.9363683462142944,-1.4929189682006836,2.80464243888855,3.241091251373291,-2.6531014442443848],[2.513655424118042,-5.029345989227295,-0.5249847173690796,-2.130490779876709,-6.938277721405029,-5.183658599853516,2.3219027519226074,-0.3022345006465912,0.8933534622192383,5.497281074523926,-3.819941282272339,-0.7366583943367004,-0.5150890946388245,1.6270034313201904,-0.7235540747642517,5.255481243133545,-2.0718202590942383,2.864453077316284],[-1.9933853149414062,0.9803450703620911,-0.07258305698633194,4.2787275314331055,-2.9807772636413574,2.439455986022949,-2.1191935539245605,0.6134693622589111,0.2397521734237671,-4.583968639373779,0.18071091175079346,0.10961722582578659,3.715296983718872,0.005442738067358732,-1.9309968948364258,0.41015082597732544,-2.6314809322357178,-5.449226379394531],[-1.401841163635254,3.4387261867523193,-0.14981919527053833,2.4189772605895996,-0.6924108862876892,-3.074171781539917,2.371264696121216,-0.25273555517196655,-0.8264247179031372,-3.8710014820098877,2.385070562362671,3.366675615310669,-1.143669843673706,1.123353362083435,1.302363634109497,0.12220373749732971,-0.9005764126777649,0.9841486811637878],[-0.0520457960665226,0.09804915636777878,1.0541552305221558,0.955351710319519,1.709730863571167,-2.3948020935058594,1.218237042427063,-5.574020862579346,-1.937007188796997,-5.465670108795166,0.37683558464050293,-1.0934648513793945,0.651028037071228,2.6642799377441406,2.078470230102539,-1.5355476140975952,3.288954734802246,-3.1936280727386475],[0.5857746005058289,2.4652252197265625,-1.1852734088897705,6.7935709953308105,-1.8283803462982178,-0.5968151092529297,-0.3320563733577728,-0.4360467493534088,-0.29892241954803467,0.5681661367416382,-0.9260149002075195,-4.815339088439941,9.285905838012695,-1.6548069715499878,-0.194179505109787,-2.673966884613037,1.4825000762939453,-4.046298980712891],[1.5298988819122314,2.284543752670288,1.0651599168777466,-1.6714876890182495,-1.9349192380905151,-0.3942578434944153,-0.8891950249671936,-4.142688751220703,0.5765619277954102,-1.2451688051223755,2.750278949737549,-0.3278086185455322,0.6033422350883484,0.10912129282951355,1.880893588066101,-2.644486665725708,-1.1604070663452148,-6.652620315551758],[1.4031788110733032,1.2965885400772095,-1.8293863534927368,2.65820050239563,2.733459711074829,1.651740550994873,3.544872760772705,2.515636444091797,-0.5523098111152649,1.6409002542495728,-1.7744269371032715,-5.9353861808776855,-2.073164939880371,-2.2234792709350586,0.059172213077545166,-0.46161946654319763,0.23802649974822998,-0.18189497292041779],[0.326214075088501,7.338994979858398,-3.7158660888671875,6.165642261505127,-0.2016952782869339,2.0709826946258545,3.8980050086975098,2.269702434539795,0.7752278447151184,-3.777024507522583,-1.8305200338363647,-0.9553651809692383,1.7759065628051758,0.1789638251066208,1.9490206241607666,0.6201156973838806,-3.3287694454193115,0.6801489591598511],[4.630603313446045,2.3836255073547363,0.9432505369186401,0.2097083479166031,-0.2968810498714447,3.385641098022461,-2.062262535095215,0.6749253273010254,1.9599863290786743,0.42601269483566284,1.3649362325668335,0.9853043556213379,0.10405947268009186,-0.7333410978317261,-3.0692102909088135,-0.9691043496131897,-1.3152765035629272,-0.11481837928295135],[3.7597901821136475,3.065323829650879,4.778893947601318,3.301102876663208,-2.245626449584961,-2.6094775199890137,-5.26318359375,-0.1425938606262207,1.2234708070755005,0.6177073121070862,2.9961156845092773,-0.8316097855567932,3.5331220626831055,-1.610815405845642,-4.573565483093262,-2.267848491668701,-1.5265223979949951,2.8727481365203857],[5.149592876434326,-6.568288803100586,-1.8653919696807861,-3.8825902938842773,2.140970230102539,0.0025282143615186214,-1.8289642333984375,1.0493857860565186,-0.5304751992225647,2.9366838932037354,-1.3517158031463623,-0.6591678857803345,7.640571117401123,-0.6232879161834717,0.19003000855445862,-4.891662120819092,1.401425838470459,0.7150198817253113],[0.2638436257839203,-2.149142265319824,0.01602860726416111,0.48512277007102966,3.2461094856262207,3.6083314418792725,6.7195000648498535,-2.3514866828918457,-1.913026213645935,-2.8106284141540527,-2.3007431030273438,1.2562944889068604,-0.6504110097885132,2.6385560035705566,1.940569281578064,-0.9034097194671631,1.4598803520202637,1.5811481475830078],[8.332303047180176,-1.457635760307312,0.740753173828125,-1.0048753023147583,-0.11709147691726685,5.149960994720459,-0.3018169105052948,-0.2936061918735504,-0.24051471054553986,-0.3911319375038147,0.0432078018784523,-0.5592912435531616,-1.913109540939331,-2.898601531982422,-0.29550793766975403,-1.6416738033294678,1.1870464086532593,2.626659393310547]],"biases":[-0.0989433154463768,-0.1337023824453354,0.02529310993850231,-0.012192022055387497,0.16616468131542206,0.002000621519982815,0.15095965564250946,0.08789633959531784,-0.1304253786802292,0.15259625017642975,-0.10380931198596954,0.1775866150856018,0.15184040367603302,-0.04113629087805748,0.11773816496133804,-0.08472352474927902]},{"weights":[[-2.298448085784912,2.2870919704437256,-0.516646683216095,2.7379932403564453,1.150393009185791,-0.9399369359016418,-0.44612810015678406,-0.09748513251543045,2.9391191005706787,-4.530807971954346,-4.838977813720703,-1.128408670425415,-3.8448190689086914,0.9365425705909729,2.7337560653686523,7.235104560852051],[0.6316258311271667,-1.2424145936965942,0.560712993144989,2.0932140350341797,4.813927173614502,-1.5036202669143677,-1.5438331365585327,2.928239345550537,3.4752509593963623,-4.9863691329956055,2.7100374698638916,-1.0816634893417358,-0.8333910703659058,1.8993746042251587,4.218849182128906,0.09303034096956253],[1.3509804010391235,-1.7479524612426758,-0.7560681700706482,-4.627254009246826,5.7901434898376465,1.2217857837677002,1.0156645774841309,3.1222219467163086,1.6005938053131104,-1.1803972721099854,0.9399474263191223,3.7386882305145264,1.1011179685592651,-1.9913015365600586,1.4640512466430664,5.3816351890563965],[-2.2664968967437744,-3.151310443878174,2.5337281227111816,-0.582331120967865,-3.01130747795105,4.212464809417725,-1.9431207180023193,-0.6648654341697693,-1.9662598371505737,1.8646026849746704,-0.9868602752685547,0.1895861178636551,-0.8024864792823792,1.306189775466919,-1.0295543670654297,-4.174576282501221],[-0.384505033493042,-0.6135026216506958,-0.6725514531135559,-1.3737491369247437,0.7551522850990295,1.8578230142593384,1.102878212928772,-0.3712361752986908,-0.16479241847991943,0.20467987656593323,-3.1843066215515137,2.20760178565979,-2.5717289447784424,-2.1317877769470215,-0.6353137493133545,3.710665464401245],[1.6481913328170776,-1.0399223566055298,5.553628444671631,0.0595872662961483,0.03637125715613365,-3.8020310401916504,-0.813753604888916,2.077569007873535,3.508488893508911,0.27300530672073364,2.264192819595337,-6.720926284790039,0.582824170589447,-2.75747013092041,-4.832086563110352,-1.6105985641479492],[-1.0765063762664795,1.1911706924438477,0.2750284671783447,-2.6836793422698975,4.814349174499512,-0.34718650579452515,0.04566062614321709,0.9798116683959961,2.7054615020751953,-1.29732346534729,-0.7344723343849182,5.285579204559326,-0.018701527267694473,-0.2508295178413391,0.0739319920539856,3.3482940196990967],[-1.2809113264083862,-1.4449635744094849,1.1476725339889526,-0.9136233925819397,6.876473903656006,0.524492621421814,1.3961561918258667,7.155908107757568,0.24075087904930115,-0.6112185120582581,-4.160481929779053,-2.852871894836426,1.8024667501449585,-0.2636365294456482,2.0824930667877197,-4.9081130027771],[5.457954406738281,-0.4173775911331177,7.385825157165527,-0.23174993693828583,-6.001343727111816,-3.3420677185058594,-2.4120078086853027,-2.059605598449707,5.87761926651001,-1.3170912265777588,-2.4972891807556152,-3.14632511138916,-4.170995235443115,-2.2466132640838623,-4.196836948394775,-1.8498191833496094],[-0.32782790064811707,-3.464289426803589,-5.009448051452637,2.871150255203247,1.143882155418396,0.5231223702430725,-0.20826467871665955,-2.4653563499450684,1.8376363515853882,-2.574542284011841,-0.9925093650817871,-0.5827794075012207,-0.6483874917030334,-2.076688051223755,2.478530168533325,-0.557547926902771],[-4.633651256561279,2.973013401031494,2.676034927368164,-1.3947181701660156,-0.22598932683467865,-5.006999969482422,-0.671042263507843,0.36208614706993103,-3.3953683376312256,3.032258987426758,1.5444061756134033,-0.7746183276176453,-0.20889319479465485,1.2446516752243042,2.6846747398376465,4.33108377456665],[3.009300470352173,3.1263296604156494,-0.8575825095176697,0.2009153813123703,1.761795997619629,-0.323434442281723,0.45574039220809937,-2.2854056358337402,2.038325548171997,-4.8226141929626465,1.1282024383544922,0.5936655402183533,-1.6571112871170044,-0.31165048480033875,-0.8897924423217773,-4.037670135498047],[-5.469313144683838,6.169626235961914,-5.064154148101807,5.098168849945068,-2.1212568283081055,-3.6545724868774414,1.746843934059143,1.839140772819519,-1.1018455028533936,7.524730205535889,-0.402675986289978,4.101304531097412,-0.4883928596973419,2.070777416229248,3.412593126296997,-3.788961887359619],[3.3632071018218994,-2.227651834487915,-2.495664596557617,4.987711429595947,-2.1915080547332764,2.9292709827423096,-0.2447897493839264,7.251145839691162,1.6512893438339233,-3.2957892417907715,-3.7209525108337402,-1.1494649648666382,-3.6295101642608643,-5.441485404968262,0.7282765507698059,-1.1256738901138306],[-7.050495624542236,-2.1824750900268555,-0.6585444211959839,1.3477394580841064,2.3084299564361572,0.8553142547607422,-1.5532091856002808,-3.4749081134796143,-2.713498115539551,0.8435741662979126,-2.528644323348999,3.668794631958008,2.832120180130005,4.10206937789917,-0.9336656928062439,-4.824185848236084],[2.347290515899658,-4.1596245765686035,0.43720200657844543,-0.33041995763778687,-4.440488815307617,-0.6804028749465942,-0.49931028485298157,-5.019055366516113,-0.32277384400367737,0.935929536819458,-1.7561625242233276,-0.5265949368476868,1.3282597064971924,1.7768597602844238,2.1327016353607178,2.883131980895996]],"biases":[0.07528328895568848,0.12268663942813873,-0.14599335193634033,-0.07328945398330688,0.13587434589862823,-0.04158783331513405,0.19650207459926605,-0.0992860421538353,0.07686109840869904,0.10676709562540054,0.13117516040802002,0.13291357457637787,0.1366093009710312,0.061498817056417465,-0.19988329708576202,0.06869321316480637]},{"weights":[[4.289714813232422,5.203347682952881,5.531968116760254,-11.591182708740234,5.535077095031738,0.21006551384925842,-6.640451908111572,-7.7097063064575195,1.3971344232559204,-1.5336540937423706,5.115927696228027,-5.488075256347656,1.9005283117294312,-1.205418348312378,3.1207964420318604,6.541339874267578],[-5.784175395965576,-2.9599413871765137,-0.8351824879646301,8.935150146484375,4.942034721374512,0.3428345024585724,-8.805038452148438,-0.7544188499450684,2.1904866695404053,1.5198239088058472,0.42380598187446594,4.837796688079834,6.062288284301758,-2.6027629375457764,-1.5974786281585693,15.826520919799805],[-0.41167667508125305,2.3239681720733643,0.7498526573181152,-8.03593921661377,0.5470565557479858,4.495368003845215,1.132990837097168,-2.3626248836517334,0.015154560096561909,4.693205833435059,-2.6858069896698,6.044414520263672,-2.150458335876465,-2.3986663818359375,-1.5640997886657715,-7.551733016967773],[-0.6565561294555664,2.373293399810791,7.883285999298096,-4.280487060546875,-8.510090827941895,-0.9273724555969238,5.259364128112793,-2.205784559249878,-7.571107387542725,-3.6815848350524902,9.152677536010742,-6.882694244384766,1.4033397436141968,5.912550449371338,1.8601667881011963,-2.165177345275879]],"biases":[-0.16962605714797974,-0.13088476657867432,0.06084821745753288,0.05260072648525238]}],"inputLookup":null,"inputLookupLength":0,"outputLookup":null,"outputLookupLength":0,"options":{"inputSize":18,"outputSize":4,"binaryThresh":0.5,"activation":"sigmoid","hiddenLayers":[16,16]},"trainOpts":{"activation":"sigmoid","iterations":20000,"errorThresh":0.005,"log":false,"logPeriod":10,"leakyReluAlpha":0.01,"learningRate":0.3,"momentum":0.1,"callbackPeriod":10,"timeout":"Infinity","beta1":0.9,"beta2":0.999,"epsilon":1e-8}}