{"type":"NeuralNetwork","sizes":[18,16,16,4],"layers":[{"weights":[],"biases":[]},{"weights":[[-0.3834109902381897,-2.068608283996582,1.5781866312026978,1.3939120769500732,1.4971946477890015,-1.1216768026351929,-1.046807885169983,-3.8608851432800293,0.1553085297346115,-1.4718059301376343,-3.358339548110962,1.494582176208496,-1.0588769912719727,3.1519644260406494,0.07163499295711517,1.2418462038040161,-1.9824327230453491,1.1476023197174072],[0.8907925486564636,-3.7916147708892822,-2.4379563331604004,1.0926254987716675,-2.849400520324707,1.6449546813964844,2.150409698486328,-0.9932621121406555,-0.2444128841161728,-1.3444427251815796,-2.308298349380493,-0.6816531419754028,6.302053451538086,-0.1463777720928192,2.5023891925811768,0.4615485966205597,1.532436490058899,0.6625969409942627],[-2.4843170642852783,3.7037248611450195,-1.7529513835906982,-3.441380262374878,0.45429331064224243,-0.6936984062194824,5.023272514343262,-4.477773189544678,2.330373764038086,-1.4213835000991821,0.04799804091453552,-1.5961638689041138,0.327345073223114,0.9363683462142944,-2.1408047676086426,1.9022128582000732,3.241091251373291,-2.6531014442443848],[2.513655424118042,-5.029345989227295,-0.3543185591697693,-2.130490779876709,-6.938277721405029,-5.183658599853516,2.3219027519226074,-0.3022345006465912,0.8933534622192383,5.086495876312256,-3.819941282272339,-1.283206820487976,0.02272365614771843,1.6270034313201904,-0.7235540747642517,5.305027961730957,-2.7617204189300537,2.2726221084594727],[-1.9933853149414062,0.9803450703620911,-0.5007691979408264,4.2787275314331055,-2.9807772636413574,2.439455986022949,-2.1191935539245605,0.6134693622589111,0.2397521734237671,-4.583968639373779,0.18071091175079346,0.10961722582578659,3.715296983718872,0.005442738067358732,-1.9309968948364258,0.41015082597732544,-2.6314809322357178,-4.692761421203613],[-1.401841163635254,4.369229316711426,-0.14981919527053833,2.39786958694458,-1.609063744544983,-1.8112025260925293,2.371264696121216,-0.25273555517196655,-0.8264247179031372,-3.124882698059082,2.385070562362671,2.703662633895874,-1.143669843673706,1.123353362083435,1.302363634109497,-0.1648463010787964,-1.070072054862976,1.3480722904205322],[-0.0520457960665226,0.09804915636777878,0.39045092463493347,0.955351710319519,1.709730863571167,-2.3948020935058594,1.218237042427063,-4.728916645050049,-2.4782543182373047,-5.465670108795166,0.37683558464050293,-0.5139358043670654,0.360310822725296,2.6642799377441406,1.1478068828582764,-1.5355476140975952,3.288954734802246,-3.1936280727386475],[0.5857746005058289,1.5954186916351318,-1.1852734088897705,7.251865386962891,-1.0728977918624878,-0.5968151092529297,-0.3320563733577728,0.45057469606399536,-0.29892241954803467,0.8622817397117615,-1.8388423919677734,-4.815339088439941,8.706388473510742,-1.6548069715499878,-0.194179505109787,-2.673966884613037,1.4825000762939453,-4.481818199157715],[1.4013516902923584,2.8780875205993652,1.0651599168777466,-1.6714876890182495,-1.9349192380905151,-0.1907808631658554,-0.8891950249671936,-4.371933937072754,0.5765619277954102,-1.2451688051223755,2.750278949737549,-0.3278086185455322,0.6033422350883484,0.10912129282951355,1.880893588066101,-1.7305809259414673,-1.4713239669799805,-6.652620315551758],[1.2441574335098267,2.6808111667633057,-1.5918141603469849,2.65820050239563,3.5612077713012695,1.651740550994873,3.6131396293640137,2.515636444091797,-0.5523098111152649,1.23349928855896,-1.7744269371032715,-5.9353861808776855,-2.073164939880371,-2.1735289096832275,0.059172213077545166,-0.46161946654319763,0.23802649974822998,0.7889313101768494],[0.326214075088501,6.79917049407959,-4.027573585510254,6.165642261505127,0.7593667507171631,2.0709826946258545,3.8980050086975098,1.5825238227844238,1.748144268989563,-4.445716381072998,-1.8305200338363647,-0.7767382264137268,1.7759065628051758,0.1789638251066208,1.9490206241607666,0.6201156973838806,-3.3287694454193115,1.2194607257843018],[4.630603313446045,3.0068840980529785,0.9432505369186401,0.9782052040100098,-0.9983147978782654,3.385641098022461,-2.6479673385620117,0.6749253273010254,2.6341559886932373,0.42601269483566284,1.3649362325668335,0.9853043556213379,0.10405947268009186,-0.37564581632614136,-3.0692102909088135,-0.9691043496131897,-1.3152765035629272,-0.11481837928295135],[2.821286916732788,3.065323829650879,3.9682836532592773,3.301102876663208,-2.245626449584961,-2.6094775199890137,-5.26318359375,-0.1425938606262207,1.2234708070755005,0.6177073121070862,2.9961156845092773,-0.8316097855567932,3.5331220626831055,-2.075758218765259,-4.573565483093262,-2.267848491668701,-1.5265223979949951,2.3202669620513916],[5.149592876434326,-6.908101558685303,-1.8653919696807861,-3.8825902938842773,2.140970230102539,-0.5554748177528381,-1.8289642333984375,2.027918577194214,-0.5304751992225647,2.9366838932037354,-1.3460423946380615,-0.6591678857803345,7.640571117401123,-0.6232879161834717,0.19003000855445862,-4.053380489349365,1.2015818357467651,0.7150198817253113],[0.2638436257839203,-2.149142265319824,-0.22340762615203857,0.48512277007102966,3.2461094856262207,3.6083314418792725,6.7195000648498535,-2.5288519859313965,-2.461559295654297,-2.8106284141540527,-1.064976453781128,1.2562944889068604,-0.4697496294975281,2.2753713130950928,1.940569281578064,-0.9034097194671631,1.4598803520202637,1.093178153038025],[7.992554664611816,-1.457635760307312,0.740753173828125,-0.8535836338996887,-0.11709147691726685,4.6341423988342285,-0.3018169105052948,-0.2936061918735504,-0.24051471054553986,-0.3911319375038147,-0.4226861298084259,0.3091450035572052,-1.913109540939331,-2.898601531982422,-0.29550793766975403,-1.6416738033294678,1.1870464086532593,2.626659393310547]],"biases":[-0.0989433154463768,-0.1337023824453354,0.02529310993850231,-0.012192022055387497,0.16616468131542206,0.002000621519982815,0.15095965564250946,0.08789633959531784,-0.1304253786802292,0.15259625017642975,-0.10380931198596954,0.1775866150856018,0.15184040367603302,-0.04113629087805748,0.11773816496133804,-0.08472352474927902]},{"weights":[[-2.298448085784912,2.2870919704437256,-0.516646683216095,2.7379932403564453,1.150393009185791,-0.9399369359016418,0.5462736487388611,-0.09748513251543045,2.9391191005706787,-4.530807971954346,-4.838977813720703,-1.128408670425415,-3.8448190689086914,0.9365425705909729,2.7337560653686523,7.235104560852051],[2.0127036571502686,-1.2424145936965942,0.8377707600593567,2.0932140350341797,4.386714458465576,-1.5036202669143677,-1.5438331365585327,2.928239345550537,3.2009029388427734,-4.9863691329956055,2.330068349838257,-1.0816634893417358,-0.8333910703659058,1.8993746042251587,4.218849182128906,0.13088677823543549],[0.9992062449455261,-1.7525490522384644,-0.4361937344074249,-4.3061652183532715,6.295539379119873,1.2217857837677002,1.0156645774841309,2.9317734241485596,1.6005938053131104,-0.470328688621521,0.37270092964172363,3.7386882305145264,1.1011179685592651,-2.3944740295410156,1.4640512466430664,5.098979949951172],[-2.2664968967437744,-2.3055927753448486,2.470491886138916,-0.582331120967865,-3.01130747795105,3.8656578063964844,-1.9431207180023193,-1.5970607995986938,-1.9662598371505737,1.8646026849746704,-0.8683702945709229,-0.3749345541000366,-1.186862587928772,1.4335049390792847,-1.0295543670654297,-4.174576282501221],[-0.08968785405158997,-0.6135026216506958,-0.44570404291152954,-1.3737491369247437,0.7551522850990295,1.2719186544418335,1.102878212928772,-0.16779479384422302,-0.16479241847991943,0.20467987656593323,-3.1843066215515137,2.254889965057373,-2.5717289447784424,-2.1317877769470215,-0.956047773361206,3.710665464401245],[1.6481913328170776,-1.0399223566055298,4.674111366271973,0.0595872662961483,0.03637125715613365,-3.8020310401916504,-0.1896205097436905,1.297403335571289,3.508488893508911,0.27300530672073364,2.264192819595337,-6.720926284790039,0.582824170589447,-2.75747013092041,-5.126219749450684,-1.6268775463104248],[-1.0765063762664795,1.1911706924438477,0.2750284671783447,-3.411992073059082,5.185070037841797,-0.34718650579452515,-0.1307850033044815,0.1143803820014,2.7054615020751953,-1.29732346534729,-0.7344723343849182,5.285579204559326,-0.018701527267694473,-0.2508295178413391,-0.9046435952186584,3.7629432678222656],[-1.2809113264083862,-1.4449635744094849,2.271193027496338,-0.48469701409339905,6.876473903656006,0.524492621421814,1.3961561918258667,7.155908107757568,0.24075087904930115,-0.6112185120582581,-4.160481929779053,-2.852871894836426,1.8024667501449585,-0.2636365294456482,3.0803470611572266,-4.9081130027771],[5.457954406738281,0.20213432610034943,7.385825157165527,-0.23174993693828583,-5.733864784240723,-2.6078217029571533,-2.4120078086853027,-1.5664587020874023,5.045960426330566,-1.3170912265777588,-1.387258529663086,-3.661839723587036,-3.18536114692688,-2.86728572845459,-4.196836948394775,-1.8498191833496094],[-0.32782790064811707,-3.464289426803589,-5.009448051452637,2.871150255203247,0.5074313879013062,0.5231223702430725,-0.1237635388970375,-2.4653563499450684,1.8376363515853882,-2.574542284011841,-0.33284690976142883,0.04998847842216492,-0.6483874917030334,-2.076688051223755,2.4265124797821045,-0.9605985283851624],[-4.4277424812316895,2.973013401031494,2.676034927368164,-1.3947181701660156,-0.791846513748169,-5.006999969482422,-0.671042263507843,0.36208614706993103,-3.3953683376312256,3.032258987426758,1.5444061756134033,-0.7746183276176453,-0.20889319479465485,1.2446516752243042,2.6846747398376465,4.33108377456665],[3.009300470352173,3.1263296604156494,-0.8575825095176697,0.2009153813123703,1.761795997619629,-0.323434442281723,0.45574039220809937,-2.4263405799865723,3.0375962257385254,-4.8226141929626465,1.7653357982635498,0.5936655402183533,-3.1661627292633057,-0.31165048480033875,-0.8897924423217773,-4.037670135498047],[-6.103550910949707,6.169626235961914,-5.064154148101807,4.552380561828613,-2.1212568283081055,-3.4209110736846924,2.194749355316162,2.71730375289917,-1.1018455028533936,6.789639949798584,0.149143248796463,4.101304531097412,-0.4883928596973419,2.070777416229248,3.7272531986236572,-3.788961887359619],[2.8579261302948,-2.227651834487915,-1.9752397537231445,4.987711429595947,-2.7220494747161865,2.9292709827423096,-0.2447897493839264,7.574644088745117,1.606866717338562,-3.2957892417907715,-3.7209525108337402,-2.1378090381622314,-3.6295101642608643,-5.441485404968262,0.848416805267334,-0.914298415184021],[-7.050495624542236,-2.1824750900268555,-0.6023786664009094,0.9877815246582031,2.3084299564361572,0.8731399178504944,-1.5532091856002808,-3.4749081134796143,-2.713498115539551,0.9672974348068237,-2.528644323348999,3.668794631958008,2.724928617477417,4.10206937789917,-0.9336656928062439,-4.824185848236084],[2.647803544998169,-4.1596245765686035,0.17475023865699768,-0.33041995763778687,-4.440488815307617,-0.6804028749465942,-0.49931028485298157,-5.186961650848389,-0.4558151960372925,0.935929536819458,-1.7561625242233276,-0.5265949368476868,1.3282597064971924,1.6518813371658325,2.1327016353607178,3.4128079414367676]],"biases":[0.07528328895568848,0.12268663942813873,-0.14599335193634033,-0.07328945398330688,0.13587434589862823,-0.04158783331513405,0.19650207459926605,-0.0992860421538353,0.07686109840869904,0.10676709562540054,0.13117516040802002,0.13291357457637787,0.1366093009710312,0.061498817056417465,-0.19988329708576202,0.06869321316480637]},{"weights":[[4.289714813232422,5.908449172973633,4.106680393218994,-12.14843463897705,4.711424827575684,0.038959696888923645,-5.66107702255249,-8.333978652954102,1.3971344232559204,-1.539702296257019,5.848921775817871,-3.689361095428467,1.9005283117294312,-1.5569086074829102,1.7588832378387451,6.260178089141846],[-5.2871928215026855,-2.5312094688415527,-0.6065301299095154,9.150142669677734,5.215857982635498,0.6111690998077393,-8.805038452148438,-1.1820470094680786,2.1904866695404053,1.7958893775939941,-0.10915911197662354,4.442017078399658,6.062288284301758,-4.269460201263428,-0.9664264917373657,15.248729705810547],[0.38976413011550903,3.0021677017211914,-0.025008779019117355,-7.494357585906982,0.012459879741072655,4.495368003845215,1.297168493270874,-2.3626248836517334,-0.7558542490005493,4.693205833435059,-3.3451337814331055,6.044414520263672,-2.582298517227173,-3.31436824798584,-0.06229365989565849,-8.569671630859375],[-0.26312556862831116,2.4367189407348633,7.467286109924316,-4.192783355712891,-7.744510650634766,-1.342694878578186,5.55434513092041,-2.3022162914276123,-7.604247570037842,-3.9268953800201416,9.131521224975586,-6.882694244384766,1.606041431427002,5.912550449371338,2.51009464263916,-3.5283560752868652]],"biases":[-0.16962605714797974,-0.13088476657867432,0.06084821745753288,0.05260072648525238]}],"inputLookup":null,"inputLookupLength":0,"outputLookup":null,"outputLookupLength":0,"options":{"inputSize":18,"outputSize":4,"binaryThresh":0.5,"activation":"sigmoid","hiddenLayers":[16,16]},"trainOpts":{"activation":"sigmoid","iterations":20000,"errorThresh":0.005,"log":false,"logPeriod":10,"leakyReluAlpha":0.01,"learningRate":0.3,"momentum":0.1,"callbackPeriod":10,"timeout":"Infinity","beta1":0.9,"beta2":0.999,"epsilon":1e-8}}