{"type":"NeuralNetwork","sizes":[244,16,16,4],"layers":[{"weights":[],"biases":[]},{"weights":[[5.066534042358398,1.2075514793395996,2.1763103008270264,-2.040879964828491,-2.5567033290863037,-2.728217840194702,-1.7251312732696533,1.697479486465454,0.903616189956665,-2.1537649631500244,1.5856988430023193,0.4048352539539337,-5.836818695068359,0.8134025931358337,1.9410678148269653,1.299566626548767,0.6611521244049072,-1.5865604877471924,1.0216493606567383,3.5826971530914307,2.754155158996582,1.3146193027496338,-0.9490442872047424,-3.909684181213379,-2.2475650310516357,1.8554723262786865,-2.205670118331909,8.404824256896973,4.116734981536865,-1.1767007112503052,-1.2769969701766968,-0.9065172672271729,-2.5094242095947266,-0.2213265299797058,1.2536900043487549,0.1835373342037201,0.9560573101043701,-2.806703567504883,1.2055350542068481,0.7830532193183899,3.849416971206665,1.5464495420455933,1.348537564277649,1.1668448448181152,0.01915314421057701,-1.7658238410949707,1.9395393133163452,-2.337099552154541,7.926080226898193,-1.1214672327041626,-5.156270980834961,2.467768430709839,8.209060668945312,-2.0597052574157715,5.604218006134033,5.04318380355835,5.456064224243164,1.7525049448013306,0.2602529525756836,-0.5892817378044128,-1.7408974170684814,-0.07695180922746658,-1.708188533782959,0.7705367803573608,-1.2801358699798584,-0.7517725229263306,-1.3279567956924438,-0.8494052886962891,3.0946545600891113,7.464869499206543,-0.02730485424399376,3.510080575942993,3.212907314300537,3.4106314182281494,2.763657331466675,-0.20727378129959106,0.9085628390312195,-4.126556873321533,-3.5339837074279785,-0.938850998878479,0.9260978698730469,0.016754526644945145,3.032468318939209,-0.8233738541603088,-10.088306427001953,-1.109112024307251,1.551175594329834,-2.4529671669006348,-6.123048305511475,-0.5528968572616577,-3.1118276119232178,-1.1153736114501953,3.149484395980835,2.7522201538085938,0.6730342507362366,4.290615081787109,-1.8040238618850708,-1.6261218786239624,-1.0642298460006714,-1.4615548849105835,3.590609073638916,-2.578928232192993,-1.0787001848220825,-0.7913960814476013,0.5980060696601868,-0.15795499086380005,2.3112049102783203,2.9248290061950684,2.1847856044769287,-1.946098804473877,-0.16998223960399628,-3.7669613361358643,-2.0022685527801514,0.9484662413597107,-3.638902187347412,2.761401414871216,1.8513901233673096,1.678032636642456,-2.163365125656128,0.764698326587677,1.655558705329895,2.907167434692383,4.157486915588379,0.48585566878318787,1.3222428560256958,-1.7601109743118286,-3.523414373397827,3.381075859069824,1.931299090385437,0.03208637610077858,-3.630784511566162,0.8980000615119934,2.3225741386413574,-1.758353590965271,2.8742754459381104,1.104800820350647,0.969549834728241,0.2754698693752289,1.3853715658187866,-1.9982643127441406,-1.8622041940689087,0.9465729594230652,4.384618759155273,2.0006659030914307,2.272592306137085,1.5875438451766968,1.6475447416305542,-1.262334942817688,-1.259595513343811,-2.7355568408966064,0.10509638488292694,-0.7211667895317078,1.370247483253479,-1.6642836332321167,-1.2524707317352295,4.533585071563721,3.0877509117126465,3.4413928985595703,-2.623729705810547,0.29716959595680237,-2.838268756866455,3.3892595767974854,0.54822838306427,0.6603956818580627,-0.5181760191917419,4.7711181640625,-0.7764031887054443,3.341759443283081,-2.2370524406433105,-1.4869483709335327,5.330538749694824,0.2793346345424652,-0.8749913573265076,-0.7253404259681702,-0.43756628036499023,0.12596555054187775,2.6597301959991455,0.9316900968551636,3.8419649600982666,2.9972891807556152,-5.351296424865723,-1.6504000425338745,1.0106480121612549,-0.42399659752845764,2.2106435298919678,-1.3006147146224976,2.7499778270721436,0.849635124206543,-0.6084336042404175,-0.5517152547836304,-0.023257799446582794,1.2898037433624268,-1.2057969570159912,1.7788366079330444,1.7117509841918945,2.656757116317749,-0.11439412087202072,-0.1044246256351471,4.036779880523682,1.365121841430664,-0.6562721133232117,1.063186526298523,-3.094278335571289,-2.484149694442749,9.530412673950195,-0.06527457386255264,2.2096614837646484,2.2230112552642822,-1.2469249963760376,0.30234190821647644,0.5242511630058289,-1.045132040977478,-0.9964646697044373,1.852806806564331,-1.1622439622879028,-2.556100845336914,-2.248924493789673,-3.971619129180908,2.9839582443237305,-4.077462673187256,-2.2924726009368896,-1.786888599395752,2.8546175956726074,-0.4579053819179535,-3.475111246109009,-2.114422559738159,-0.9619180560112,2.7114739418029785,-0.3974211513996124,1.691759467124939,-1.0363543033599854,1.6754037141799927,2.0328283309936523,-1.0770474672317505,1.6152698993682861,2.451439142227173,-2.2054593563079834,-6.589451789855957,-0.5291772484779358,0.4437888264656067,4.59949254989624,0.011751762591302395,4.725501537322998,-0.6564123630523682],[3.281803846359253,-0.7585817575454712,-2.919036388397217,-3.6670994758605957,4.986310958862305,-2.04913592338562,-0.6353012919425964,0.1730237603187561,-0.9056622385978699,-2.4727020263671875,-2.9406440258026123,1.6502032279968262,0.8355644941329956,0.9162470698356628,0.6905953884124756,0.8499398827552795,1.1097846031188965,0.527596652507782,-1.4808217287063599,5.034174919128418,-2.1334927082061768,1.9365919828414917,-1.2328310012817383,-4.501692295074463,1.3382655382156372,1.982370138168335,-5.274114608764648,0.8759012222290039,3.514496088027954,-3.2616024017333984,-3.4764063358306885,0.6962692737579346,1.3248647451400757,-1.6707720756530762,4.585381031036377,-2.8899850845336914,0.878861129283905,-1.1381773948669434,1.8071260452270508,1.2758126258850098,0.7131960391998291,0.6951166987419128,-2.8520867824554443,0.09190493822097778,1.927018404006958,2.6489810943603516,1.1779310703277588,0.3786337673664093,1.234175205230713,-0.12448814511299133,-0.06783848255872726,-2.9367427825927734,0.6660058498382568,4.9413161277771,0.6825065612792969,1.0775691270828247,-3.9758663177490234,-2.8703033924102783,1.369063138961792,-2.2845044136047363,1.4683188199996948,0.8371116518974304,1.0978931188583374,0.6692396402359009,1.9807709455490112,3.563532829284668,2.9580540657043457,4.553210258483887,-2.68765926361084,-4.05776309967041,-4.894047260284424,2.863086223602295,1.0405703783035278,0.017176205292344093,4.401337623596191,2.2710578441619873,0.218849778175354,-2.1696958541870117,0.10460647940635681,-5.842071533203125,0.026267901062965393,-1.8690935373306274,4.2454094886779785,-1.7974746227264404,0.9170809984207153,4.330881118774414,1.8233658075332642,0.6899459362030029,0.5257444977760315,2.102393388748169,3.537734031677246,1.2368327379226685,-0.015001313760876656,-0.5191585421562195,2.3029236793518066,-0.6579737067222595,3.2939605712890625,1.2101750373840332,-1.6482234001159668,4.9525465965271,0.8932507038116455,-3.446239948272705,-2.3306186199188232,1.2888033390045166,-2.4225683212280273,2.457501173019409,0.5736355781555176,0.7581680417060852,-3.274806261062622,3.3367764949798584,-1.2245573997497559,-1.7929140329360962,0.1026739776134491,-1.9258774518966675,0.7897285223007202,-1.795133113861084,0.054035432636737823,5.8511962890625,0.1475401371717453,1.47968590259552,1.3886206150054932,3.5825068950653076,-3.3046276569366455,-0.6436353325843811,-5.66648530960083,3.1886651515960693,0.8029137253761292,4.680779933929443,3.141940116882324,-0.33622267842292786,-0.2797510325908661,0.7916383743286133,1.790824294090271,0.44652268290519714,-1.2802178859710693,2.9931230545043945,1.1520192623138428,2.7824649810791016,-0.019218187779188156,-3.855071544647217,-2.495837688446045,0.039508361369371414,3.9552667140960693,-1.399222493171692,-0.4886949360370636,0.2996003031730652,-0.5651719570159912,-1.9365371465682983,-2.4127252101898193,1.5652265548706055,-1.9030771255493164,-0.9886106848716736,-1.830633521080017,-1.4454542398452759,-1.3274297714233398,-0.9935759902000427,3.527343273162842,-0.41771766543388367,3.932891368865967,1.0024259090423584,-1.0548408031463623,-0.7330028414726257,2.157816171646118,1.4336183071136475,3.5684688091278076,-0.42124998569488525,1.214576005935669,1.735683798789978,-2.905693531036377,-1.5850410461425781,-0.48727720975875854,0.5066923499107361,-1.0872900485992432,5.059937477111816,-0.4790293574333191,4.1758317947387695,-0.8306064009666443,-0.9953438639640808,2.5372443199157715,3.5201170444488525,-1.1291372776031494,-2.1850502490997314,-1.958902359008789,-2.7065281867980957,-1.1346096992492676,6.625223159790039,-4.304116249084473,-0.50469571352005,2.172708749771118,0.01595994271337986,1.9503955841064453,-0.7422479391098022,0.4120956361293793,-3.8252575397491455,-2.6392102241516113,0.6398854851722717,3.8396592140197754,-1.719510793685913,0.12802192568778992,5.608354091644287,-2.263517141342163,3.2012157440185547,4.495341777801514,-5.178365230560303,-1.9410145282745361,0.46029219031333923,0.7987232208251953,-4.261725425720215,0.11363562941551208,1.155293345451355,0.6202977895736694,-4.939980983734131,0.6269564628601074,-4.042250633239746,-3.836699962615967,-3.252957344055176,-2.224971055984497,-3.4471826553344727,1.5532691478729248,0.6112739443778992,-0.7114079594612122,1.5659695863723755,0.40992721915245056,-3.8846004009246826,1.4388173818588257,1.3940755128860474,-0.40209507942199707,5.426755905151367,1.2795770168304443,-4.8011651039123535,0.44606953859329224,-0.42527085542678833,5.3137688636779785,0.2858990430831909,2.830739736557007,-0.5575933456420898,1.5379422903060913,-1.1268433332443237,3.487476110458374,2.8355791568756104,1.8200576305389404,-0.9155421853065491,3.2834367752075195,-1.6538861989974976],[-2.781024694442749,-2.2709453105926514,4.6644392013549805,-0.042926300317049026,1.1026779413223267,-1.4214551448822021,0.20074276626110077,2.032397747039795,0.636690080165863,3.48445987701416,0.33944830298423767,-1.9671568870544434,1.8564897775650024,-4.36613655090332,1.133987307548523,-0.16162748634815216,0.7028355598449707,-2.2945101261138916,-0.36445528268814087,-1.3822307586669922,1.9420371055603027,-1.6785765886306763,4.721020698547363,-0.617929220199585,-1.0009524822235107,-3.531231641769409,-1.6660125255584717,3.432525634765625,0.9415968060493469,0.1158481016755104,-3.2368695735931396,-1.0745981931686401,0.9207687377929688,1.470216989517212,0.8488608002662659,-0.30079415440559387,-1.7609502077102661,-0.11279310286045074,2.9574332237243652,2.483213186264038,4.203963756561279,-1.143185019493103,0.725885272026062,-1.9881688356399536,1.4421515464782715,1.9027104377746582,0.7677489519119263,-2.0408854484558105,4.461880207061768,1.5585734844207764,-3.461272716522217,1.4784260988235474,-0.5735189914703369,1.2422645092010498,-0.016281824558973312,-0.17460507154464722,4.6441330909729,-1.572780728340149,-4.122494697570801,0.8736485838890076,-1.7580913305282593,-1.259118676185608,-2.3342227935791016,6.181473255157471,-0.44646838307380676,1.9476547241210938,2.8421919345855713,0.9454048275947571,1.3565524816513062,-2.5612099170684814,0.5178343057632446,-8.008781433105469,2.4982903003692627,-2.722006320953369,-2.2638494968414307,-1.1478607654571533,-0.760801374912262,1.4331891536712646,-1.7506508827209473,-1.296419382095337,2.286625623703003,1.2485884428024292,-0.5228443741798401,0.8230606317520142,0.8007208704948425,-1.3421341180801392,-0.06355149298906326,-4.168280601501465,-4.451572895050049,1.2381774187088013,0.746322751045227,3.166386842727661,1.5753883123397827,2.4945757389068604,1.0787546634674072,1.4027657508850098,2.856715202331543,-3.595864772796631,0.8658878803253174,-1.0536558628082275,2.2764782905578613,-0.6914644241333008,3.575995683670044,-1.9345037937164307,-0.03862041234970093,3.8047280311584473,-2.495816469192505,-0.3355658948421478,-1.7682018280029297,5.737382411956787,0.6884105205535889,0.12723542749881744,1.2563942670822144,2.5598435401916504,-2.5338361263275146,1.4442194700241089,-3.075284004211426,-1.2326322793960571,-1.278809905052185,4.00730037689209,-1.2534356117248535,1.223905086517334,2.9377634525299072,-1.7765318155288696,-2.701982021331787,-1.1056104898452759,5.083865642547607,2.7918152809143066,0.41214051842689514,0.4309142827987671,-4.1369242668151855,-2.497586727142334,-0.12227953970432281,-0.48125147819519043,-3.1125614643096924,-1.4534225463867188,-5.639970302581787,0.654191255569458,-0.19596391916275024,-3.880849838256836,0.12845592200756073,1.209598422050476,-3.8477795124053955,-3.323539972305298,-1.0022478103637695,2.7974302768707275,1.5605148077011108,-4.90364933013916,2.0753397941589355,0.22823698818683624,1.4506217241287231,1.3540867567062378,2.3949735164642334,-0.3552275002002716,2.6439740657806396,2.3716275691986084,-4.160277366638184,1.0567997694015503,-1.2382769584655762,1.0805524587631226,-0.22611787915229797,-0.469304621219635,1.9215028285980225,1.5610387325286865,0.17645443975925446,3.4121272563934326,-1.1963213682174683,2.609511137008667,0.5660654902458191,-5.60816764831543,-1.7699507474899292,3.481367826461792,1.3778715133666992,-1.8173439502716064,0.514136016368866,0.9556920528411865,-0.749714195728302,-0.7037943005561829,3.0665485858917236,2.5945522785186768,-1.0628185272216797,1.3694844245910645,-2.3994338512420654,2.667808771133423,-0.08159005641937256,-0.01572471112012863,0.00043514027493074536,-0.9523917436599731,1.4497895240783691,1.4188735485076904,2.268615245819092,2.1067686080932617,-1.139965534210205,-1.6254254579544067,-1.3651368618011475,-4.217875957489014,-0.7487825155258179,0.36712220311164856,1.6110823154449463,-0.046166691929101944,-4.317611217498779,0.34744948148727417,1.0393708944320679,-1.9739307165145874,-0.8116444945335388,-0.2592024505138397,-0.4181910455226898,-4.53694486618042,-0.8842687606811523,0.9018567800521851,-1.469369888305664,-7.527204990386963,-0.37396007776260376,2.2546067237854004,0.6115424633026123,-1.5573009252548218,-1.2744203805923462,-1.550889015197754,-3.1512818336486816,-2.322709083557129,0.9453641176223755,-1.55380380153656,-2.160151720046997,-3.03732967376709,1.6114602088928223,-1.6115087270736694,1.8915181159973145,-4.256760597229004,-0.007713036146014929,-1.6960927248001099,-0.7166838645935059,-1.8247920274734497,1.1600064039230347,-0.9764812588691711,1.4914628267288208,-1.0222406387329102,3.1634750366210938,0.5208079814910889,0.039636459201574326,-5.327637672424316,-3.890634775161743,2.9765796661376953,1.2071518898010254,1.1613876819610596],[0.9029104113578796,-1.7515569925308228,-0.3812028765678406,-1.715946078300476,0.3328777849674225,4.683076858520508,2.571028470993042,0.98050457239151,0.8821316957473755,-1.4620059728622437,0.42299991846084595,-1.0421065092086792,-4.9523539543151855,1.9582420587539673,-4.6327009201049805,0.20704640448093414,1.5473946332931519,2.9155588150024414,2.13625431060791,1.0146209001541138,0.5691918134689331,1.1738903522491455,0.80030757188797,0.313829243183136,2.14739727973938,-3.503258228302002,1.4897334575653076,2.1185405254364014,1.5214511156082153,0.5724439024925232,-2.151369094848633,6.25360107421875,0.6763454675674438,-3.5311245918273926,-2.0482118129730225,3.142843723297119,1.8530577421188354,2.2359113693237305,2.8526411056518555,0.9305616021156311,3.247756242752075,2.8296663761138916,-3.5814273357391357,-1.9181091785430908,1.0278688669204712,-3.637917995452881,-1.1609827280044556,-3.332550287246704,-1.1145206689834595,5.332121849060059,-0.7721830010414124,-0.9592735767364502,1.0447131395339966,3.3820366859436035,-0.5006234645843506,0.9703153371810913,-3.39908504486084,1.4777612686157227,-0.2923913300037384,0.7839184403419495,0.4179167151451111,3.815272092819214,0.3607606589794159,5.379401206970215,0.4478606879711151,-3.45809268951416,0.026313602924346924,-2.180147409439087,-1.4348735809326172,5.928609371185303,-3.3324179649353027,-0.4501726031303406,2.62579345703125,0.9343079924583435,1.6068278551101685,-4.775057792663574,2.5304949283599854,-5.3284783363342285,-0.3683830797672272,0.25333112478256226,1.6849846839904785,-0.2776370644569397,2.368743419647217,3.1915197372436523,-0.02253434993326664,-3.220245361328125,2.814265727996826,-0.9648199677467346,-0.9090916514396667,2.693331718444824,0.15856921672821045,1.8639247417449951,1.7727408409118652,-0.1348692923784256,-1.4430981874465942,1.8536885976791382,-3.746448040008545,-2.8273298740386963,-1.7988160848617554,4.956890106201172,-3.0723283290863037,-1.43293035030365,2.019634246826172,1.4434008598327637,0.24109044671058655,0.630902111530304,-3.1804730892181396,-5.239335536956787,-0.7438361644744873,1.450682282447815,0.010491146706044674,5.198390960693359,-4.2176833152771,8.281024932861328,0.9057406187057495,-1.7222199440002441,-3.125800371170044,-5.288817405700684,1.1369357109069824,5.242886066436768,3.443599224090576,-0.41826483607292175,-1.4495142698287964,-0.8779304623603821,-0.11886792629957199,-1.1839566230773926,-3.7546868324279785,1.6135135889053345,1.9883497953414917,-0.6680400371551514,-0.11822131276130676,-0.45927193760871887,3.538581371307373,-0.8495368361473083,-1.0017048120498657,-1.2735389471054077,-2.4849493503570557,-1.2915388345718384,-0.9072064161300659,0.14973010122776031,-2.8254776000976562,1.3374258279800415,0.3979402482509613,-0.31486114859580994,-3.3659818172454834,0.3441494405269623,-0.608198344707489,-1.4504599571228027,-0.7205024361610413,0.07658707350492477,0.19914983212947845,4.094096660614014,-2.405820608139038,-2.3492071628570557,1.2004772424697876,-3.032069444656372,-2.0152149200439453,-0.7029485106468201,2.348897695541382,-4.7452263832092285,-3.974813461303711,0.4392448961734772,2.362124443054199,2.9089388847351074,-2.0533618927001953,1.1265645027160645,-2.2374260425567627,-0.8374324440956116,-2.664311408996582,2.303271532058716,2.6448121070861816,-0.583653450012207,-0.7078289985656738,1.0445852279663086,-0.6357190608978271,0.2659381031990051,-1.6903144121170044,3.0411555767059326,3.9053587913513184,-6.883153438568115,-1.4512897729873657,5.546786785125732,1.6752333641052246,-1.1288257837295532,-3.184375762939453,2.8120548725128174,-1.6610310077667236,-0.46473580598831177,-1.010352373123169,2.4866843223571777,1.640743374824524,-1.1934782266616821,-0.18408435583114624,1.1530036926269531,0.27288609743118286,-2.739924430847168,-5.497589111328125,0.44972845911979675,2.281402349472046,-0.09383219480514526,0.14135006070137024,-6.924413204193115,2.3722875118255615,-1.9600199460983276,-1.993704915046692,-2.513399362564087,0.8088565468788147,-0.047096751630306244,-0.6996057033538818,0.4969591796398163,-1.007988452911377,-3.864755630493164,1.3835911750793457,-2.846515655517578,-0.5892977118492126,-0.09075751900672913,-1.324232816696167,-0.3535718619823456,-2.09269380569458,2.3450489044189453,-2.3619515895843506,0.7890024781227112,3.6575140953063965,-0.14559586346149445,2.326059341430664,2.1367146968841553,2.955812931060791,1.3229711055755615,2.4546470642089844,-0.19932647049427032,1.1720771789550781,-2.134999990463257,-0.27175313234329224,3.079491376876831,-1.0135480165481567,-3.319727897644043,-1.131422758102417,5.554811000823975,-0.640612781047821,2.2136645317077637,-4.153913497924805,-2.400397539138794,2.812138557434082,-2.6742217540740967],[-0.8375928997993469,-1.2518806457519531,-2.7708137035369873,-0.5867469906806946,-4.756638526916504,-1.9135160446166992,1.9692232608795166,-4.082538604736328,0.8052718043327332,3.4272706508636475,2.115946054458618,-1.8991713523864746,-3.7069990634918213,-3.9189646244049072,0.47154825925827026,-1.9196135997772217,-3.2870969772338867,1.4179471731185913,-1.4782038927078247,-4.550281524658203,-3.263838529586792,-0.12984725832939148,-0.5787507891654968,-0.5989953875541687,0.6126412749290466,1.6995495557785034,0.05005282163619995,-1.8762390613555908,-2.7781457901000977,0.4945675730705261,2.31319260597229,0.7005370259284973,-0.5179016590118408,-1.0298188924789429,-0.40648695826530457,-1.7461711168289185,-0.21239160001277924,-2.4874730110168457,4.380459308624268,-2.9319210052490234,-2.2475178241729736,-4.420103549957275,-0.002742243930697441,3.4790279865264893,-0.905353844165802,-2.265230894088745,-2.982836961746216,-3.9828131198883057,3.6543612480163574,-3.9161458015441895,-0.0639955997467041,-2.3224825859069824,1.3166093826293945,2.4165267944335938,-3.0305941104888916,1.2461836338043213,-2.0199241638183594,-3.5071239471435547,-2.1014585494995117,1.3372215032577515,1.2445147037506104,2.1209616661071777,-0.7027955651283264,-2.171427011489868,-2.1035354137420654,-1.8590123653411865,0.8607470989227295,3.132829189300537,-2.0790538787841797,3.314668893814087,-0.3180222809314728,1.807541847229004,2.8532981872558594,2.75938081741333,2.4124653339385986,2.507507085800171,-0.168823704123497,1.9277915954589844,3.0803921222686768,-0.5107478499412537,0.8444163799285889,4.548111915588379,-2.6361477375030518,0.23561547696590424,-1.540557861328125,-2.6589419841766357,-2.7626121044158936,0.13667260110378265,0.4966147840023041,2.665156126022339,2.6142196655273438,-1.5897350311279297,1.2091468572616577,4.165759563446045,2.174894094467163,-3.241884231567383,-5.7417192459106445,-1.55686616897583,0.8331274390220642,-0.441965252161026,-3.4642508029937744,-0.5205134749412537,1.1808041334152222,-0.34574177861213684,0.18751311302185059,0.6494032144546509,0.4340626001358032,2.9575130939483643,-3.920135736465454,-2.6504201889038086,0.6455133557319641,-0.20580877363681793,1.435947060585022,-1.289068341255188,3.372124671936035,1.6573729515075684,-3.087167739868164,-3.05718731880188,-3.5474040508270264,0.403594970703125,-0.1782570481300354,0.642045795917511,-0.23615320026874542,-3.0484516620635986,-0.7968113422393799,2.2285783290863037,-0.26791825890541077,1.9098591804504395,-2.7144787311553955,-3.7643802165985107,0.4629957973957062,-0.9710699915885925,0.6893892288208008,-0.7918633818626404,1.2536911964416504,-0.9098341464996338,0.409447580575943,-1.5860514640808105,4.058276653289795,4.743843078613281,2.281996011734009,1.5408562421798706,-0.25072240829467773,1.4612908363342285,1.8691147565841675,-4.4497504234313965,-2.2945995330810547,-3.2714340686798096,3.1030282974243164,3.0982613563537598,-1.3927593231201172,1.1007719039916992,-2.7966513633728027,-0.15387102961540222,2.7035300731658936,0.08780193328857422,1.5205540657043457,2.153247833251953,0.05302117019891739,3.008875846862793,-2.1132144927978516,0.9158907532691956,-1.8090423345565796,0.3371318280696869,-0.3879895508289337,0.12054533511400223,-0.8396427631378174,2.4420487880706787,3.652155637741089,1.5573625564575195,0.06220728158950806,5.129404067993164,0.8276229500770569,-1.6047660112380981,2.7909626960754395,-0.5680696368217468,-1.623813271522522,0.2221004068851471,-0.06178707629442215,2.604588031768799,0.15248511731624603,0.8442952036857605,1.8002653121948242,-0.007947999984025955,-0.07153802365064621,-2.3356900215148926,-0.0738799050450325,1.9974830150604248,6.669588565826416,-0.9598135948181152,0.8004299998283386,-1.401448369026184,0.5361353754997253,-2.0832629203796387,-2.1689114570617676,-2.0870859622955322,-0.43947458267211914,1.518621802330017,6.06566047668457,0.8919175267219543,-1.2422022819519043,0.8548297882080078,-3.4599664211273193,-0.3062421679496765,0.26031652092933655,-1.6789875030517578,3.685359477996826,0.48698511719703674,-2.071204662322998,-3.2534549236297607,-3.9470674991607666,-2.1697847843170166,0.9466703534126282,-2.2683041095733643,1.0588690042495728,0.1698761284351349,-0.7502790689468384,-0.9455780982971191,0.6378718614578247,1.0628340244293213,3.960390567779541,0.7872512340545654,2.6581945419311523,-2.6840193271636963,-4.17279052734375,1.4809101819992065,-0.1989578753709793,2.9221303462982178,2.433743953704834,-0.9667587280273438,-1.3909528255462646,-0.36420968174934387,-2.532963514328003,4.270542621612549,-3.246711492538452,1.2148611545562744,3.0888760089874268,-0.36046355962753296,-2.6706759929656982,-0.09156093746423721,0.19924749433994293,1.1837177276611328,2.041602611541748,2.7270100116729736],[4.316208362579346,-0.9394652247428894,-1.4905134439468384,-0.6158174276351929,2.607255220413208,-0.4234176576137543,-3.2285640239715576,-2.1380162239074707,-0.7064207792282104,-2.5054335594177246,-2.1222622394561768,-0.5585457682609558,0.1805703341960907,-2.88124942779541,1.0630346536636353,-1.842288613319397,0.009492098353803158,0.5679323673248291,-3.2296197414398193,2.9055192470550537,0.595665693283081,3.3054511547088623,0.9198300838470459,1.7652779817581177,3.000239133834839,0.12987537682056427,4.207840442657471,2.2696144580841064,-1.9849023818969727,-1.3067317008972168,-0.40434494614601135,5.211637496948242,-5.11598539352417,3.7144713401794434,-0.5792810320854187,3.6498031616210938,1.4845715761184692,-0.6029675006866455,-1.78827965259552,-4.590317726135254,2.1472673416137695,2.3319993019104004,-3.9744558334350586,3.9699134826660156,1.3147549629211426,-0.4284719228744507,1.8100178241729736,-0.666775107383728,-3.5531747341156006,7.167544364929199,1.3914059400558472,0.5018758177757263,2.3000717163085938,-0.574657678604126,2.78312611579895,-0.6688170433044434,-0.1794646978378296,-1.510655164718628,-0.08167874068021774,-0.5150701403617859,0.13155977427959442,-1.873674988746643,2.5777461528778076,1.533170461654663,-0.9903512001037598,-1.0712746381759644,0.7943819165229797,1.2853423357009888,0.2521687150001526,-8.291099548339844,-0.3403516411781311,2.8077242374420166,-1.4130892753601074,-1.3951163291931152,1.90357506275177,1.4290246963500977,-0.9672361612319946,-1.1904925107955933,1.3283454179763794,0.6547225117683411,2.176760196685791,-0.27962252497673035,1.1115937232971191,-5.366600036621094,-3.696697473526001,-0.551461398601532,-0.7637419104576111,2.8283300399780273,3.707319498062134,-5.612210750579834,2.980633497238159,2.783290147781372,-6.5757246017456055,3.7231898307800293,-0.23248279094696045,1.167992353439331,-4.012881755828857,3.3338685035705566,0.16242513060569763,0.11396489292383194,-2.193098306655884,-0.7465323209762573,2.9794318675994873,4.565656661987305,1.4860544204711914,-3.1075029373168945,2.3409180641174316,1.441926121711731,0.3036818206310272,5.818795204162598,-2.569816827774048,-2.184992551803589,-1.8940460681915283,-2.4987456798553467,-1.3276286125183105,1.8221468925476074,1.7264199256896973,-2.1716084480285645,1.9834529161453247,1.8019828796386719,0.8352773785591125,1.0427442789077759,0.7855799198150635,-1.1072086095809937,0.45138487219810486,0.7870842218399048,0.1309133768081665,-1.1617287397384644,-0.18534895777702332,0.3303150534629822,0.28602442145347595,0.2209857851266861,-2.1197316646575928,2.23502254486084,2.968177318572998,0.6193574666976929,-0.4757033586502075,1.4171667098999023,-2.0932395458221436,1.9053159952163696,1.6252906322479248,-1.177156686782837,-0.23206649720668793,-1.3166600465774536,-0.4677082598209381,5.704706192016602,2.3128228187561035,-1.9558292627334595,-4.191159725189209,-1.6161671876907349,1.6912422180175781,0.39383894205093384,4.49526309967041,-3.7639851570129395,-4.03945255279541,-0.9934818744659424,-1.321981430053711,0.10634326189756393,-0.07416602224111557,-1.4520971775054932,3.8167500495910645,-5.553446292877197,-0.4419806897640228,-1.6293282508850098,-0.09618790447711945,-0.747820258140564,-3.469081401824951,1.9390980005264282,-0.8945419192314148,1.1845558881759644,1.7007838487625122,3.091866970062256,-0.6652722358703613,0.7548086643218994,0.874550461769104,1.212324857711792,-2.1384942531585693,-0.8479443192481995,0.5984893441200256,2.41327166557312,-2.804577350616455,-1.760876178741455,0.7074076533317566,3.438371181488037,-1.6274116039276123,2.191967248916626,-2.180300235748291,1.5939030647277832,1.1392273902893066,0.16122202575206757,0.17586806416511536,-1.5018360614776611,0.5554586052894592,2.5579967498779297,1.2146185636520386,-0.5483104586601257,1.373409390449524,1.7101157903671265,-1.8977456092834473,-0.31697291135787964,2.3235297203063965,1.6056548357009888,-1.220360517501831,1.9212449789047241,-1.7934906482696533,2.808418035507202,0.279826283454895,-1.4473063945770264,3.234388589859009,5.244962692260742,-0.4333026707172394,0.5485691428184509,3.3854284286499023,3.537555694580078,2.3092048168182373,-0.7347521185874939,-1.338964581489563,-1.7767213582992554,1.551709532737732,1.8657748699188232,-2.093592643737793,-0.6434427499771118,-1.215421199798584,-1.4228802919387817,-2.570821523666382,-1.6517448425292969,3.222968101501465,-2.5093348026275635,1.5112782716751099,3.9668691158294678,-3.459751605987549,-0.289040744304657,-0.422098845243454,-2.783322811126709,-2.6948554515838623,-2.4378085136413574,1.1482822895050049,-1.1949113607406616,4.167730331420898,-1.5695332288742065,0.9109881520271301,0.8998348116874695,-1.5140734910964966,-2.278247356414795],[2.349550247192383,-0.5688478946685791,-2.5589346885681152,-0.589080274105072,-2.2956936359405518,2.1359026432037354,1.7855559587478638,4.15265417098999,2.4263808727264404,-2.817798614501953,0.13759014010429382,-2.071086883544922,1.9838591814041138,-1.6499431133270264,1.0878795385360718,-0.425820529460907,3.725904703140259,-1.62393319606781,-1.126739263534546,-0.5646083354949951,-0.5998519062995911,3.434269905090332,0.17639219760894775,-1.0964019298553467,-1.6099119186401367,-1.0114208459854126,3.737366199493408,2.3554399013519287,-0.7928221821784973,2.877534866333008,-1.2584117650985718,2.2789523601531982,4.193911075592041,-0.09605865180492401,-1.1021533012390137,-8.11941146850586,-4.849452972412109,-0.39666497707366943,-0.8682495355606079,-1.4816139936447144,2.7680277824401855,-1.5340015888214111,3.6958670616149902,1.1094542741775513,-2.7140705585479736,-0.289695143699646,-1.1612569093704224,-2.4265999794006348,1.4482576847076416,-0.26342180371284485,3.2085180282592773,-0.08114120364189148,-2.126760721206665,1.9883207082748413,0.14943827688694,-4.158481121063232,-3.9002726078033447,0.763155996799469,-2.268211603164673,1.1060336828231812,-1.6111174821853638,1.7331643104553223,-0.3405761420726776,-1.6895151138305664,-4.801079750061035,1.9980329275131226,1.6503424644470215,-3.107875347137451,0.7393877506256104,0.456976056098938,2.9861700534820557,-3.177867889404297,0.1993202269077301,5.30363655090332,-0.8537887930870056,-1.981224536895752,0.5531702041625977,2.8604602813720703,-2.56107497215271,-0.2780582904815674,5.153249740600586,-2.306523323059082,2.5924041271209717,0.12478365004062653,-4.153744220733643,0.7928332090377808,-1.0256880521774292,0.03489939868450165,1.611215591430664,2.399750232696533,1.0360107421875,2.5448086261749268,1.1419371366500854,-1.5949206352233887,0.4327799081802368,-0.7299800515174866,1.0764029026031494,0.0919293612241745,3.1454062461853027,2.580446481704712,0.12526459991931915,1.6471447944641113,3.033599853515625,3.9462966918945312,-0.25532057881355286,-2.78760027885437,1.5268641710281372,3.9260103702545166,1.469490647315979,-1.8498866558074951,1.1697633266448975,0.6603131890296936,0.04773872345685959,0.45844441652297974,0.7418913245201111,-2.2769827842712402,3.9619061946868896,0.4775233566761017,-1.1600415706634521,-2.6823296546936035,-2.167431592941284,-0.03287201374769211,-1.3049967288970947,-2.766911745071411,-2.463951587677002,0.5919445753097534,-4.454102993011475,-3.838013172149658,-2.3014793395996094,-1.503192663192749,3.0984435081481934,2.313439130783081,-3.146770477294922,-2.5780110359191895,-0.3201848268508911,1.787817358970642,-0.29182735085487366,-1.4797840118408203,-3.015022039413452,1.879469633102417,4.333622932434082,2.0602822303771973,0.8130013346672058,-0.5805595517158508,-3.9665935039520264,2.3586089611053467,4.2152204513549805,-0.4527072310447693,2.413080930709839,4.949899673461914,-3.546335220336914,1.1586689949035645,-0.3009589910507202,2.745195150375366,-0.20163726806640625,0.6582596898078918,-1.4762455224990845,-5.467370510101318,-2.4967706203460693,1.4686824083328247,-1.0658953189849854,0.813896119594574,-2.8362319469451904,2.0737903118133545,1.3256034851074219,-0.5133272409439087,1.0346946716308594,2.263852596282959,0.22831526398658752,-1.3645521402359009,-1.619083285331726,1.8010544776916504,-0.15557129681110382,3.2189764976501465,-2.0952794551849365,0.8715864419937134,-4.320907115936279,-1.0307735204696655,1.3496003150939941,1.0828588008880615,-3.572575330734253,1.2901642322540283,-1.0343234539031982,1.5365864038467407,1.6979529857635498,-1.909887671470642,-0.23438401520252228,0.8995488882064819,0.6952113509178162,0.6269760131835938,-2.5485546588897705,1.5267481803894043,-3.0568408966064453,2.2689931392669678,-2.0387754440307617,7.216193675994873,2.863821506500244,1.3477165699005127,1.1469553709030151,-0.7963758707046509,-0.7357153296470642,4.462725639343262,-0.37847453355789185,-0.14303255081176758,2.717759132385254,-3.27406644821167,-2.6012816429138184,-3.523803472518921,-0.006102182436734438,-1.4275879859924316,-1.5823224782943726,2.1450862884521484,1.7668046951293945,-0.1680133044719696,0.4096255600452423,-2.9811298847198486,-4.377730846405029,1.5256553888320923,-2.1718451976776123,-1.5063530206680298,-1.3808073997497559,-1.160377025604248,-0.4971073269844055,2.6821367740631104,-0.9972183704376221,3.481401205062866,0.9215162992477417,0.03829093649983406,-1.1919840574264526,1.586086630821228,-0.45219913125038147,-0.7520923018455505,-7.244642734527588,0.3207932114601135,0.3225286304950714,-2.5855579376220703,2.9726479053497314,1.6010195016860962,-0.6082061529159546,-3.395174026489258,0.8639299273490906,-1.1981267929077148,8.515410423278809,0.8228262066841125],[2.711505889892578,3.5730385780334473,2.752490997314453,-0.11839482933282852,-0.267771452665329,0.20329511165618896,-2.409728765487671,-3.8364245891571045,1.1071646213531494,4.012478351593018,-0.3538951873779297,1.246793508529663,-0.1479882299900055,-1.2294560670852661,1.5140784978866577,4.685563564300537,1.2483948469161987,-3.7156999111175537,0.2411496788263321,1.1049108505249023,0.3441261053085327,-1.7257393598556519,0.5240943431854248,-3.487952709197998,5.455587863922119,-4.18535852432251,1.7813259363174438,1.7926205396652222,-0.19071273505687714,-0.5905929207801819,-1.740288257598877,2.0699350833892822,1.40484619140625,0.8958578705787659,2.115140438079834,0.5830865502357483,3.841092586517334,2.985891819000244,0.9289832711219788,3.9697444438934326,-2.7479116916656494,0.8024383187294006,-0.6146603226661682,-2.470193386077881,0.42675891518592834,-0.12557372450828552,2.284834861755371,-4.628284931182861,-0.5177584290504456,0.038770537823438644,-2.9025321006774902,1.765825629234314,-0.37661775946617126,1.7525438070297241,0.2261677384376526,4.325263977050781,0.9368100166320801,-0.8175386786460876,-0.7773868441581726,-0.2678575813770294,-3.5563244819641113,2.14131760597229,-0.07349839061498642,-0.11576905846595764,1.2940900325775146,-0.1542890965938568,2.3390166759490967,3.5418639183044434,1.079298973083496,4.547554969787598,-3.028855085372925,-1.0794031620025635,1.9633301496505737,-1.875477910041809,1.8949384689331055,1.5124179124832153,1.9152443408966064,-2.2637219429016113,-1.5817073583602905,-0.05933428928256035,-1.7949939966201782,-1.9527796506881714,-1.7263317108154297,-3.292612075805664,-3.3235061168670654,0.4909338057041168,-0.0755414292216301,1.7441842555999756,-0.7368112802505493,-3.1765546798706055,-1.923872470855713,-0.5430446267127991,0.5358673334121704,-1.0345145463943481,0.048967666923999786,1.7858085632324219,-1.6311805248260498,0.9587962031364441,-1.9516124725341797,3.094923734664917,-4.239227294921875,-2.4868481159210205,-1.627239465713501,-0.07873973250389099,2.309321403503418,-1.406135082244873,0.7631577849388123,5.924588203430176,-0.4320000410079956,-2.477633476257324,-1.51759672164917,0.5387574434280396,-0.447506844997406,3.583010673522949,3.5690460205078125,-0.6151946187019348,1.421656847000122,-0.7320315837860107,-2.6985414028167725,-4.044085502624512,-2.010096549987793,-0.22862081229686737,-4.322804927825928,-2.8840839862823486,1.308202862739563,-0.9259080290794373,0.981837809085846,-4.84752893447876,2.661980152130127,0.2773838937282562,0.0981975793838501,0.8205508589744568,1.1005676984786987,-0.4853103756904602,-0.13787730038166046,-2.1695964336395264,-1.1757887601852417,-2.6362271308898926,0.6469476819038391,2.0493783950805664,-1.3082716464996338,-1.520795226097107,-1.5801026821136475,-2.722625970840454,3.2862069606781006,0.8027899265289307,2.080172538757324,-1.8752431869506836,-3.7228052616119385,-2.2895729541778564,-0.06896685063838959,2.5316660404205322,-1.4815194606781006,1.8583835363388062,1.7627196311950684,3.735684394836426,0.21177102625370026,-4.739528179168701,0.20802855491638184,-3.6127519607543945,4.29154109954834,-0.22384679317474365,-1.1001704931259155,-3.4513158798217773,1.953700304031372,3.5884757041931152,-3.7998037338256836,2.153329610824585,-0.23099611699581146,3.9903645515441895,-1.8504478931427002,1.9915790557861328,-0.6924312114715576,-0.4784340560436249,0.1713709682226181,-1.2501509189605713,0.9258211255073547,0.6552679538726807,-1.7536556720733643,2.7781314849853516,1.6268328428268433,-0.25060197710990906,3.5938804149627686,1.2699339389801025,-0.3129875957965851,-2.745983600616455,-2.573380708694458,-2.4994258880615234,-0.8530349731445312,1.8297678232192993,-0.6526412963867188,-0.032771989703178406,-0.3850080668926239,1.5563995838165283,0.3534905016422272,-2.3183460235595703,0.6533047556877136,-3.3370614051818848,5.440858364105225,2.3846945762634277,-3.8383963108062744,0.3648650050163269,1.2491462230682373,-1.9939171075820923,-0.2249882072210312,-0.04281812161207199,-7.650193691253662,-1.9483236074447632,-0.44570446014404297,-1.3068712949752808,-3.4276349544525146,-2.686615228652954,2.9311466217041016,2.7544662952423096,-0.06133630499243736,-1.5396515130996704,1.9114634990692139,0.48001137375831604,4.027890682220459,-2.7115397453308105,0.6324854493141174,3.454744815826416,-3.489129066467285,-4.094761848449707,0.30621930956840515,-2.832648992538452,-4.0967888832092285,-0.9471114277839661,-2.6985883712768555,-3.7556519508361816,-0.9674190878868103,-1.1287106275558472,-1.4897009134292603,2.796008586883545,1.6322124004364014,-1.7148782014846802,1.7672673463821411,1.5566576719284058,-3.2952466011047363,3.6557040214538574,0.3486950695514679,-1.7499431371688843,-2.348952531814575,-2.377054452896118],[0.3238275349140167,-0.9877132773399353,4.637692928314209,0.8971191644668579,-2.2068822383880615,-0.02870667539536953,-0.671862006187439,-1.5864249467849731,1.8951116800308228,-0.7779874801635742,4.135706901550293,0.1905122548341751,1.7656335830688477,1.7017359733581543,1.2202047109603882,3.310302495956421,3.509143352508545,3.0454297065734863,-0.7785971760749817,3.0778326988220215,-0.5554108619689941,-0.48628896474838257,0.05245230346918106,5.969048023223877,-0.3185192942619324,-1.209318995475769,-0.5776124596595764,1.3461002111434937,0.7827845811843872,-0.000641196733340621,0.9175832867622375,2.5748658180236816,-0.5226523280143738,-2.2051022052764893,-1.8245197534561157,0.4630553424358368,-0.7166509032249451,0.847318172454834,0.2646932899951935,-3.133822202682495,-2.173877716064453,-0.7894213199615479,-0.08125139027833939,-4.013069152832031,0.6497588753700256,0.799223780632019,1.5007034540176392,-0.40206846594810486,-2.622124195098877,-2.301295042037964,4.680962562561035,-2.9078543186187744,2.1345274448394775,0.19780434668064117,1.9714281558990479,-0.5746192932128906,2.1429851055145264,6.722868919372559,-1.1934947967529297,0.4578050971031189,0.2529727816581726,1.6037553548812866,-3.0157527923583984,-1.5249531269073486,2.684014081954956,2.747877836227417,-3.3698554039001465,-3.2039833068847656,1.7431086301803589,-0.7914900183677673,-1.598353385925293,1.4020640850067139,-1.9270656108856201,-3.119197368621826,0.9134657979011536,2.0500810146331787,-3.906656265258789,-3.1784024238586426,2.016716718673706,-3.3266162872314453,-1.9710736274719238,-0.65397709608078,-3.2410242557525635,-2.4027605056762695,0.62814861536026,-1.1817487478256226,-0.9152732491493225,-3.8147056102752686,-0.2133350819349289,-2.24822998046875,-1.7876125574111938,-3.615129232406616,0.475409597158432,3.536330223083496,0.3609734773635864,-7.580867290496826,-2.009249687194824,-0.8461759686470032,0.0797385647892952,-1.9398609399795532,-4.703934669494629,-0.8940368890762329,-0.9122254252433777,-6.261378288269043,-2.0879135131835938,-3.4306480884552,2.2292251586914062,-3.421882152557373,1.1906898021697998,-1.0649259090423584,3.2319424152374268,0.17365184426307678,-5.009405136108398,1.127389907836914,-1.1651599407196045,4.5668816566467285,-2.3144371509552,2.738278388977051,-1.8248381614685059,-0.28782331943511963,0.003929262049496174,1.1816797256469727,0.9469095468521118,0.1598721742630005,-0.4154803156852722,-0.9291576147079468,-2.0214309692382812,7.903070449829102,1.198673963546753,2.257382392883301,1.385221004486084,-0.516112208366394,-0.25393715500831604,-3.063051700592041,0.9654554724693298,0.8185380697250366,2.3395659923553467,5.078303337097168,0.3889694809913635,-1.7712070941925049,-0.4556826651096344,-0.948903501033783,2.280451774597168,-1.1172983646392822,3.0706403255462646,5.175524711608887,-3.5029499530792236,4.305226802825928,-0.2747487723827362,-5.648361682891846,-2.195697546005249,0.5793824195861816,0.3118278384208679,3.317431688308716,0.012924223206937313,-1.330557107925415,-0.979458749294281,1.1249189376831055,-2.684725761413574,3.5634572505950928,2.5647428035736084,-1.825677514076233,0.4482792913913727,-2.609807252883911,2.9662649631500244,1.3183372020721436,-3.09574556350708,-0.4675537645816803,3.284230947494507,-2.260645866394043,-5.312326431274414,-1.583617091178894,-2.4603095054626465,-2.0233843326568604,-1.9351379871368408,2.9946036338806152,0.36941686272621155,3.31646728515625,1.2859755754470825,-2.0823557376861572,-3.246692180633545,-5.156260967254639,1.8881196975708008,-3.3455026149749756,0.7872183918952942,-1.1442605257034302,1.209389328956604,-4.357174873352051,1.3041090965270996,-0.43371281027793884,-1.1862497329711914,0.3225686252117157,1.6843600273132324,1.2712798118591309,-0.3711146116256714,-2.2994561195373535,-0.477638840675354,3.8639345169067383,0.3709524869918823,4.231808185577393,2.043100595474243,-2.0533580780029297,-1.8173269033432007,-1.559001088142395,-3.3720662593841553,4.166416168212891,-1.9279454946517944,0.8152878880500793,-0.0044461931101977825,-3.1523361206054688,-1.101197600364685,-0.4614473879337311,-1.3985141515731812,2.700239658355713,2.7964937686920166,0.7585480809211731,-0.8247233033180237,-1.049896001815796,1.6609405279159546,3.344639301300049,0.6214419603347778,2.503101110458374,-5.309631824493408,-1.5756937265396118,-3.723597526550293,-0.3053666055202484,1.6007939577102661,1.4706475734710693,2.1176199913024902,-0.39440837502479553,-2.0661354064941406,2.3202710151672363,0.03764187917113304,0.5769264698028564,1.8355686664581299,5.811683177947998,-1.273513913154602,1.905961275100708,-1.621545672416687,0.13075745105743408,-1.2092591524124146,-1.4837373495101929,1.9308807849884033,-2.6535181999206543],[-1.4733175039291382,0.8999400734901428,1.4999327659606934,1.0984673500061035,-2.816209077835083,-4.465011119842529,-0.31914404034614563,-0.8682540655136108,-1.2889271974563599,-2.1776576042175293,-3.5766444206237793,-2.3463447093963623,-1.2252154350280762,1.2597566843032837,-1.6072725057601929,-1.2662142515182495,1.5351825952529907,-2.464454174041748,-3.1796061992645264,-3.5950958728790283,0.03321123123168945,-0.04153168201446533,2.890169620513916,-1.9747408628463745,2.720867872238159,-1.8760085105895996,3.2672019004821777,-1.115321397781372,5.0023956298828125,-4.14463472366333,-0.1725173443555832,3.912052869796753,-1.8933534622192383,1.7375274896621704,-3.887052059173584,-3.5246543884277344,1.56920325756073,-0.994866669178009,0.3108396530151367,0.6124066114425659,-0.6319903135299683,-3.394449472427368,-3.0920543670654297,-2.3365488052368164,-3.80937123298645,-4.035906791687012,0.21566373109817505,0.9628803730010986,0.8169000148773193,0.3249419033527374,-0.15860764682292938,0.9739199876785278,2.106945514678955,1.0177081823349,2.1832096576690674,-2.4532768726348877,0.7074543833732605,0.6327901482582092,-1.6879348754882812,-2.078888416290283,0.06742174178361893,4.235886096954346,-2.142770290374756,0.7655825018882751,2.0977659225463867,-2.7489686012268066,-2.795125722885132,-5.56413459777832,-2.7063045501708984,-1.3986248970031738,-0.2014961689710617,0.4296940565109253,5.0039238929748535,-0.5117981433868408,-1.016015648841858,-2.8067469596862793,3.750999689102173,1.5010133981704712,2.5373780727386475,1.0865951776504517,2.6188831329345703,-1.2754523754119873,0.10470262914896011,0.8313544392585754,2.7572202682495117,1.9839106798171997,-3.2364439964294434,-0.7414563894271851,2.3438103199005127,2.525979518890381,-0.16727294027805328,-1.0209956169128418,-1.832146406173706,-2.4326441287994385,1.5499117374420166,1.4644886255264282,1.079306721687317,1.6523538827896118,0.5001558661460876,0.18950271606445312,-0.45629462599754333,-1.7421200275421143,-0.8293469548225403,-0.4533695578575134,-3.293625593185425,0.5828593373298645,3.2231945991516113,-2.193183183670044,1.5551083087921143,2.6673543453216553,4.955448627471924,-3.108368396759033,-2.3234410285949707,-3.8670687675476074,2.5043752193450928,-4.185762405395508,2.1364474296569824,0.4702551066875458,1.7663038969039917,-1.4702228307724,-0.7142830491065979,-0.9079209566116333,-0.05302629619836807,0.8791474103927612,1.5076631307601929,-1.258452296257019,1.8606103658676147,-0.8738393783569336,3.4210121631622314,1.2937296628952026,3.096173048019409,1.7662937641143799,-0.5255721807479858,3.3429572582244873,-2.6552813053131104,1.3460586071014404,3.0111799240112305,-1.020003080368042,-2.9164211750030518,-1.413111925125122,6.927570819854736,-4.048537254333496,0.7083316445350647,-2.5171945095062256,-3.9067680835723877,-3.3028457164764404,-0.5258373618125916,4.637781143188477,1.9397027492523193,1.4180818796157837,1.5323822498321533,2.539024829864502,-3.833909749984741,1.0900051593780518,0.9729140996932983,2.8362882137298584,-2.3268165588378906,-1.6694633960723877,-4.598201274871826,0.7040796875953674,0.21635814011096954,4.127757549285889,4.260733604431152,1.1363704204559326,-1.7454514503479004,1.8514790534973145,-0.059569984674453735,-2.113764762878418,1.6007299423217773,1.213741660118103,0.6073585152626038,1.684967041015625,-0.9185353517532349,1.1971266269683838,2.1153693199157715,3.8071956634521484,0.5449263453483582,1.6970723867416382,1.2764291763305664,-0.727631151676178,-0.07716858386993408,2.485050678253174,-2.1874966621398926,-1.6912007331848145,0.46655094623565674,-1.29762601852417,-6.114864826202393,-3.5488455295562744,-1.0214647054672241,1.8167051076889038,5.471045017242432,-1.417111873626709,-1.7219998836517334,2.0897719860076904,-1.2715551853179932,0.2634660601615906,3.710977077484131,1.5228396654129028,-4.365787982940674,-2.911699056625366,0.0656617060303688,0.8060811161994934,-1.191753625869751,-0.7701231837272644,0.4803476333618164,-0.6906954646110535,2.393617630004883,-4.361361503601074,1.9027217626571655,1.5943093299865723,0.6845091581344604,0.8308277726173401,0.9271266460418701,1.087195634841919,-0.5419579744338989,-1.3943010568618774,3.236205577850342,0.5223389267921448,-2.0398740768432617,1.9518091678619385,2.6343867778778076,1.7965508699417114,0.9494120478630066,2.232586622238159,3.264854669570923,-5.042215824127197,0.840178370475769,-0.08631494641304016,-8.893512725830078,-0.3157126307487488,-0.37697046995162964,1.832330584526062,-2.010528802871704,1.1673911809921265,-1.8115342855453491,-5.433596134185791,0.868545413017273,-5.392085552215576,4.940328598022461,0.10889557003974915,1.4634050130844116,0.7847809195518494,1.114899754524231,1.563646674156189],[-1.2132014036178589,0.8998416066169739,3.9330291748046875,3.595979928970337,-0.5144981741905212,-2.417762517929077,-1.249970555305481,-2.863018751144409,2.6245768070220947,-1.4395824670791626,-1.1010798215866089,0.3423742949962616,4.178878307342529,-2.279085397720337,1.3254859447479248,-1.4004408121109009,-1.1805585622787476,-3.256157636642456,0.5706880688667297,2.579073667526245,4.589054584503174,-0.7299463152885437,2.748640298843384,2.2033262252807617,-0.03256779536604881,-2.4664056301116943,1.327719807624817,-3.930753469467163,-3.7074968814849854,-1.5718531608581543,-4.62585973739624,-0.18801404535770416,-1.802411437034607,2.391909122467041,2.8245456218719482,4.334536075592041,0.8395627737045288,-1.1785857677459717,-2.3058712482452393,-0.671163022518158,-0.5114619135856628,-2.902846574783325,0.9019071459770203,-1.3923448324203491,0.24801024794578552,3.992985486984253,0.3246208429336548,-2.2182936668395996,3.051135540008545,-0.5498351454734802,-2.1080939769744873,-2.103506326675415,1.713722825050354,0.5675589442253113,0.4316798448562622,1.6830641031265259,-0.5281450748443604,1.7289377450942993,2.9329545497894287,2.5606777667999268,-3.273221015930176,-0.2900936007499695,-4.478824615478516,0.6799720525741577,2.6356558799743652,0.8266004920005798,2.7152154445648193,3.208186388015747,0.6900538206100464,-2.2443768978118896,-2.69268798828125,3.0167243480682373,-0.6784253716468811,1.1409540176391602,0.0663171261548996,1.4130194187164307,0.14253313839435577,1.9231395721435547,0.37859946489334106,-2.322272300720215,1.7082513570785522,-2.0135204792022705,0.4072655439376831,-0.6550831198692322,1.1099375486373901,-0.7777620553970337,-3.957918882369995,-0.3006896674633026,-1.3668854236602783,-1.1726078987121582,-1.8519543409347534,1.6995340585708618,-0.7174816727638245,2.3808932304382324,1.6514443159103394,0.3754332959651947,-3.711139440536499,4.16433572769165,-2.326578140258789,-4.690114974975586,-4.487114429473877,-0.8112479448318481,-0.8891689777374268,4.261839389801025,-3.2988133430480957,1.0893445014953613,-0.6599303483963013,-1.5656259059906006,2.4252798557281494,-2.4231784343719482,0.4542406499385834,-1.0573586225509644,0.9045082330703735,1.8336329460144043,-2.3049299716949463,-0.1301746368408203,3.5719361305236816,1.3216277360916138,-0.2824266850948334,0.39153558015823364,3.4052114486694336,0.12593181431293488,1.0084974765777588,-0.6153709888458252,4.503660678863525,0.30556604266166687,0.09474064409732819,-0.2303050309419632,4.3533830642700195,1.1951767206192017,0.2762289345264435,-3.116151809692383,-6.8555192947387695,2.475600481033325,5.790481090545654,-2.610846996307373,0.5774904489517212,-1.2511677742004395,2.623340368270874,0.6237331628799438,-1.22323477268219,-1.9797958135604858,0.4178442060947418,1.2547802925109863,0.20008313655853271,1.27178156375885,-2.701338291168213,1.5747977495193481,0.6554102301597595,3.2417728900909424,2.0648128986358643,-1.5862956047058105,1.4341530799865723,-0.3247870206832886,1.0517570972442627,0.727756917476654,1.0029823780059814,1.1536483764648438,1.1905118227005005,1.7044492959976196,0.8535441756248474,-0.8274738192558289,4.1531195640563965,2.6379733085632324,2.0602846145629883,0.5606566071510315,-3.640852451324463,-3.1916239261627197,-5.02317476272583,-2.8417351245880127,0.15690605342388153,-0.29008111357688904,-1.7098808288574219,-3.907059669494629,-1.8473621606826782,1.9590054750442505,2.972062826156616,-4.377472877502441,0.5567797422409058,0.0746951773762703,1.7446269989013672,0.5230135321617126,0.5778229236602783,-1.0558063983917236,-0.6101928949356079,0.17181023955345154,-2.6183955669403076,3.7642626762390137,-0.6371285915374756,3.4394469261169434,-0.3546938896179199,-2.3810856342315674,1.3997634649276733,0.7534679174423218,1.4050747156143188,3.557037353515625,1.5233309268951416,0.8003117442131042,3.020282745361328,2.3271613121032715,3.5319364070892334,1.4141556024551392,0.7961349487304688,7.435903072357178,-2.1879682540893555,-2.614786386489868,2.5131547451019287,-0.2841309607028961,0.14525219798088074,-5.370152473449707,-5.6776041984558105,1.3517723083496094,2.790954113006592,2.313055992126465,-1.5370038747787476,-4.005738735198975,-2.885927677154541,-1.9373464584350586,2.0886011123657227,-0.2916899621486664,-1.903314232826233,0.0005899420357309282,1.1017355918884277,4.609072208404541,0.08306427299976349,1.5793675184249878,-2.722409963607788,-1.7998099327087402,-2.4379348754882812,-2.8326611518859863,1.0725986957550049,-0.35763654112815857,-2.441777467727661,-2.9137489795684814,-2.0946714878082275,0.3199038505554199,-2.44307804107666,-2.4176430702209473,-3.792562484741211,-2.576162099838257,2.975750207901001,2.069861888885498,-4.112837314605713,-2.5274131298065186],[-1.9091172218322754,-2.6452577114105225,0.2836063504219055,-1.817705512046814,-0.6073523163795471,1.2929128408432007,-1.55032479763031,-1.736561894416809,-1.1043899059295654,-5.9321160316467285,2.6146159172058105,0.9329888224601746,-1.9999667406082153,-2.414144515991211,-1.201678991317749,4.5987162590026855,-2.058990716934204,-4.422577857971191,-0.8370296955108643,-0.5372563600540161,0.06310819834470749,-2.668980598449707,2.8667280673980713,1.9860624074935913,1.9452513456344604,0.8913530111312866,0.0016735672252252698,0.17671571671962738,3.469503164291382,-1.3409762382507324,-2.2033162117004395,0.36702093482017517,-0.9289460182189941,0.4721353352069855,-0.018283257260918617,2.5352988243103027,-0.44075098633766174,0.6743094325065613,-0.2886798083782196,0.5564214587211609,-3.4104321002960205,-1.8127930164337158,1.743509292602539,8.264716148376465,1.9189971685409546,0.3193626403808594,2.7847375869750977,-2.342522621154785,0.5179178714752197,1.6595827341079712,-0.21785154938697815,1.6846050024032593,-4.983148574829102,-4.923373699188232,7.2209672927856445,-3.651669502258301,-1.5249654054641724,-0.859038770198822,-2.902402639389038,0.296457439661026,-4.9892048835754395,1.3637968301773071,3.01066255569458,0.251290887594223,-0.8360080122947693,0.07346155494451523,-1.688273310661316,-3.395019054412842,-0.8481318354606628,-2.8864905834198,-2.9463469982147217,0.9867934584617615,-3.408926486968994,-3.183992862701416,0.3651643991470337,-0.2970479428768158,2.241565704345703,4.209353446960449,2.3599538803100586,-3.4673686027526855,0.45453476905822754,-1.244444489479065,-0.21731123328208923,-1.4888789653778076,-0.6780632138252258,-2.6064980030059814,2.321383237838745,3.8032569885253906,2.730275869369507,2.1456871032714844,0.17254124581813812,2.64898943901062,-0.7519289255142212,0.04264037683606148,0.9677439332008362,3.641788959503174,-2.921069383621216,-2.7612380981445312,-2.3728373050689697,4.037059783935547,3.2125179767608643,0.9332241415977478,-2.7951931953430176,0.45514193177223206,-0.4293696880340576,-2.5671908855438232,-3.4424004554748535,5.180119514465332,-2.1993861198425293,0.5442543625831604,1.963266134262085,-0.28854843974113464,0.3507908284664154,-0.6810741424560547,-0.12538081407546997,-2.6675820350646973,1.3305460214614868,3.900904655456543,0.4133504033088684,-0.2748568058013916,2.553075075149536,-1.5326873064041138,0.17047035694122314,4.435680866241455,-1.232903003692627,6.851759433746338,-2.7444851398468018,1.3285176753997803,2.821930408477783,2.585737466812134,5.3372931480407715,1.0219168663024902,0.13747325539588928,-2.1706886291503906,1.7986774444580078,2.114237070083618,1.5659719705581665,2.2234227657318115,-0.4242294430732727,3.3611080646514893,-3.5780153274536133,2.9316866397857666,-1.5247502326965332,-2.382668972015381,0.1016668826341629,-5.85459566116333,1.7237842082977295,-0.7753868103027344,-1.0635383129119873,-2.47023868560791,0.01824679784476757,-3.361757516860962,2.625546455383301,-0.47023704648017883,2.8548998832702637,-1.5759210586547852,-0.7650037407875061,0.7240053415298462,-1.2508699893951416,-0.6566481590270996,-1.0883874893188477,1.0874830484390259,-2.1786296367645264,-5.195862770080566,-3.938823938369751,1.074532151222229,0.7208163738250732,1.541180968284607,1.5666143894195557,1.3422726392745972,-2.4262053966522217,0.24309194087982178,-4.5429205894470215,-1.2989288568496704,-3.8603432178497314,-1.7568241357803345,-3.5477137565612793,2.1749486923217773,0.8048296570777893,-4.641474723815918,-2.9352080821990967,4.4384965896606445,2.8382551670074463,-2.769667148590088,4.442877769470215,-0.04592108353972435,-1.364825963973999,-2.244175672531128,-1.171289324760437,-1.1823322772979736,1.6156444549560547,0.024119677022099495,3.526360511779785,-3.8577678203582764,1.5283006429672241,-1.6581617593765259,2.8230199813842773,1.2627720832824707,1.2198010683059692,2.426330327987671,-1.1707758903503418,-6.0771050453186035,3.9607629776000977,-0.392040878534317,3.1165924072265625,5.455666542053223,1.468019723892212,-1.2963237762451172,-2.3703839778900146,-2.3148233890533447,1.370600700378418,-3.6325864791870117,1.399016261100769,2.5038857460021973,-3.6907126903533936,-0.0797632709145546,-1.2779682874679565,-7.098415851593018,1.140336275100708,2.3785696029663086,-1.6956106424331665,-2.6429905891418457,1.4939563274383545,-2.6969504356384277,-0.8654082417488098,0.8990049958229065,3.7945663928985596,-1.6377668380737305,-2.2911536693573,2.6973588466644287,0.7545883655548096,-1.0340880155563354,3.367837429046631,-0.6689663529396057,0.7764508724212646,1.5926772356033325,0.3522549271583557,-0.35075634717941284,-0.91593337059021,1.2170977592468262,-4.409945487976074,1.245688796043396,-0.6344653367996216,2.471818685531616],[-0.4552510976791382,-0.3337801396846771,-0.4705401062965393,-1.7927513122558594,-0.18132424354553223,3.0264768600463867,-2.4871089458465576,-1.1314575672149658,-0.4737693965435028,-0.8390021324157715,-0.02466617338359356,-1.796643614768982,-2.252794027328491,-1.5094499588012695,-0.5422912836074829,0.2688235938549042,0.4478124678134918,0.5468300580978394,0.37081673741340637,-1.8849971294403076,0.9290934205055237,-1.4318490028381348,-6.036243438720703,0.03632836043834686,-0.8071335554122925,-0.847028374671936,0.38155239820480347,-0.9396465420722961,-1.6447758674621582,1.359270691871643,-3.483844041824341,7.011931419372559,-1.5583686828613281,-1.5636780261993408,-1.8781778812408447,3.0484306812286377,1.9540842771530151,1.0785506963729858,4.417102813720703,0.8437085151672363,1.8346089124679565,2.061701774597168,1.1488494873046875,3.760995864868164,-0.6542171835899353,-1.9873830080032349,0.10251063853502274,2.1851401329040527,1.2667250633239746,-0.0666424036026001,1.193951964378357,2.6716127395629883,4.172709941864014,0.8103436827659607,0.9593445658683777,-4.4630584716796875,0.33399343490600586,-0.2683815062046051,2.765747547149658,-0.9957932233810425,-0.019401436671614647,-3.105846643447876,4.171520709991455,-0.7981735467910767,-3.7165565490722656,-1.155352234840393,-1.3538413047790527,1.12857186794281,3.067289352416992,1.3863141536712646,3.4186697006225586,0.8344871997833252,1.1237225532531738,-2.2640016078948975,-1.5790246725082397,1.5956562757492065,1.864850401878357,1.1367416381835938,-1.4502992630004883,1.1788479089736938,-0.3674933910369873,-0.6057943105697632,1.6111819744110107,-0.4718816876411438,0.07054270058870316,1.7170538902282715,0.7989448308944702,-3.1221015453338623,-2.2075467109680176,-2.698124647140503,-3.5445430278778076,0.04779471829533577,2.3174455165863037,1.8350833654403687,4.503694534301758,-0.269410103559494,4.42338752746582,0.11891684681177139,1.329015851020813,-2.9992740154266357,3.177745819091797,0.07400790601968765,-4.13559103012085,1.1305011510849,2.291375160217285,1.9393826723098755,0.3573145568370819,0.7665014266967773,2.003142833709717,-1.9080145359039307,-1.9873965978622437,-0.3684493899345398,1.666144609451294,-0.8621973991394043,2.453075408935547,-2.3865020275115967,-1.3057861328125,0.7624669075012207,-5.262439727783203,-2.0442583560943604,-0.010043117217719555,0.5077937841415405,3.0829238891601562,-5.121935844421387,0.6648499965667725,0.4858355224132538,-1.889369010925293,-0.01151982881128788,-0.943023145198822,-2.267239570617676,-1.3525464534759521,0.28752604126930237,0.11973679065704346,-0.33805128931999207,-3.438891887664795,-0.0906471237540245,-4.420341968536377,-5.257516860961914,1.188464879989624,0.34244245290756226,-2.3983566761016846,3.8558170795440674,-1.2608089447021484,0.7029351592063904,-0.1410890817642212,2.6627109050750732,-2.6570675373077393,-1.2212207317352295,-0.8271968364715576,-0.37673071026802063,0.48396626114845276,-4.536771774291992,4.307945728302002,-0.08880411833524704,2.5943069458007812,-0.359905868768692,4.199635982513428,3.1627628803253174,-2.820169687271118,-2.8768117427825928,0.9427316188812256,-1.505570888519287,-0.002919337246567011,-0.7439544200897217,1.2337075471878052,1.7059396505355835,-2.0467092990875244,-0.38391000032424927,1.7332721948623657,5.917732238769531,-1.1813470125198364,0.30013662576675415,4.269917964935303,0.5500449538230896,-1.1430147886276245,2.88350510597229,0.5545357465744019,-0.9204800128936768,-1.318157434463501,0.8199910521507263,-0.49921131134033203,-2.9520394802093506,-0.14228999614715576,0.5959621071815491,-4.826681137084961,-3.654609203338623,-2.308785915374756,-0.35450512170791626,-2.837258815765381,-0.4505493640899658,0.5524784922599792,0.4905117154121399,1.569892168045044,-1.812852382659912,3.9317212104797363,-1.3431850671768188,-0.025971366092562675,1.2724652290344238,-2.010406255722046,0.08250352740287781,-1.7776226997375488,1.5676491260528564,-1.7750896215438843,1.7019925117492676,0.3582838177680969,3.3330817222595215,-2.141740083694458,-2.452488660812378,3.1429367065429688,0.2068021297454834,-0.5986700057983398,-2.234804630279541,-2.657911777496338,0.5179605484008789,-4.550063133239746,-4.801187515258789,0.7763964533805847,0.29546043276786804,2.131030321121216,4.17103385925293,-1.6644505262374878,-1.153417944908142,1.1299858093261719,0.9208042621612549,1.6971074342727661,0.31996646523475647,1.868073582649231,1.7653882503509521,-1.7470260858535767,-0.6873884201049805,-4.434359073638916,-1.9462004899978638,-1.2706180810928345,-3.160320997238159,-1.4708521366119385,2.422621965408325,1.4208606481552124,1.1205940246582031,-3.521662950515747,-3.194925308227539,-2.3106956481933594,-1.3800755739212036,3.159329414367676,-1.8110262155532837],[1.020687460899353,3.2246506214141846,1.475365161895752,0.9571712017059326,4.61396598815918,2.8175134658813477,1.9794422388076782,0.40725433826446533,-4.220936298370361,0.4640999138355255,-1.925171136856079,-2.2324438095092773,3.8560969829559326,-0.9787302017211914,-1.3094885349273682,-2.5192172527313232,1.3923978805541992,2.5759432315826416,-4.686766147613525,-2.393988847732544,-1.0683754682540894,1.8148137331008911,-2.6064693927764893,2.1924338340759277,-0.22151334583759308,-1.729218602180481,-3.5126633644104004,-2.4420828819274902,0.10342014580965042,-1.5317903757095337,-0.25152912735939026,0.4172595739364624,-1.8909540176391602,-0.13881804049015045,0.928692102432251,1.1330668926239014,3.4707133769989014,-3.197054386138916,2.7840542793273926,-0.8559951186180115,-1.1953524351119995,-0.6602185368537903,1.153304934501648,0.8606401681900024,5.286783218383789,0.26764050126075745,-1.5821928977966309,-0.7772554159164429,2.787299633026123,1.2336273193359375,0.2807224988937378,2.3226699829101562,-1.2337900400161743,3.761824131011963,2.7837746143341064,-1.0241981744766235,0.8706714510917664,2.5259199142456055,-3.779996395111084,-1.6111674308776855,1.7864292860031128,1.8001066446304321,1.3152308464050293,-4.197220802307129,1.6125415563583374,-1.00507390499115,1.3520711660385132,1.3542606830596924,1.2435551881790161,1.4492021799087524,-0.3495539426803589,2.2574410438537598,2.9998834133148193,0.3931964039802551,-1.372963309288025,-1.4316918849945068,4.509332656860352,0.7630742192268372,4.169887065887451,-1.0589689016342163,3.577561855316162,-0.28566911816596985,-0.15018093585968018,-0.8800731897354126,-2.0709896087646484,-2.9674532413482666,3.6123850345611572,-1.047683596611023,-0.5829115509986877,0.543933093547821,-0.8251555562019348,3.137605905532837,1.7406086921691895,-0.004670329391956329,-0.768234133720398,1.1900736093521118,-3.8087852001190186,5.178716659545898,-3.455413818359375,3.979595422744751,-3.6029629707336426,-1.6014022827148438,0.4891653060913086,-1.1143056154251099,0.5485772490501404,0.9157739281654358,1.520911455154419,-1.9309784173965454,1.1109517812728882,-2.245636463165283,1.697440505027771,1.243106722831726,0.01761465333402157,-0.13082535564899445,0.8076274991035461,-1.9439045190811157,-1.1121578216552734,1.2308998107910156,-3.023131847381592,-3.599092721939087,1.7597951889038086,-4.441809177398682,0.42303362488746643,-1.2578673362731934,-2.076054096221924,-3.607621192932129,1.2817349433898926,-2.5917818546295166,-2.223742723464966,-0.8877018094062805,2.8818585872650146,1.7918133735656738,0.27588772773742676,4.0264811515808105,1.4690446853637695,-1.4578579664230347,0.27038559317588806,0.32074564695358276,2.8840432167053223,4.501710891723633,0.9270442724227905,2.5896694660186768,0.33722811937332153,-0.7969563603401184,-2.838117837905884,-1.854141354560852,-3.152129888534546,3.952667474746704,2.40014386177063,-3.34477162361145,2.048710584640503,1.1234486103057861,2.7248997688293457,0.14557725191116333,3.586033821105957,-0.7713973522186279,0.07767561078071594,2.4535138607025146,-0.06276613473892212,-1.91317880153656,1.1688966751098633,4.841203212738037,-4.172840595245361,-2.1670329570770264,-2.028764486312866,-2.0931966304779053,-1.4247336387634277,-1.2940096855163574,-1.4138129949569702,-2.9837450981140137,0.3509809076786041,1.6740542650222778,0.19149525463581085,-2.1958911418914795,-2.4698984622955322,-1.6086597442626953,-1.2431209087371826,-0.18898579478263855,4.013143539428711,0.9074404835700989,-0.8337599039077759,-2.212367534637451,0.2150251269340515,-1.9684264659881592,0.7160695195198059,1.9186604022979736,0.9090007543563843,-3.9407196044921875,-0.7843315005302429,0.2225486934185028,1.2166922092437744,-0.6413829922676086,0.11638146638870239,1.3349088430404663,2.0264599323272705,-0.2528958320617676,-0.6484900712966919,-0.012774497270584106,2.988861083984375,3.015829086303711,1.5931652784347534,-2.6594269275665283,1.1505590677261353,-3.6518211364746094,2.426339626312256,-1.5336284637451172,1.726333498954773,-0.4644227921962738,-2.151029109954834,2.373182535171509,-3.4527029991149902,-0.8461434245109558,-2.0009703636169434,-3.896362543106079,0.5904125571250916,1.669274091720581,1.3188503980636597,1.9193302392959595,2.8931868076324463,-3.5109846591949463,-3.0532472133636475,-1.012479543685913,0.4723508358001709,2.4810945987701416,2.985978603363037,1.9742720127105713,-2.4183597564697266,0.8575470447540283,0.5831151008605957,0.07379994541406631,-0.05115971714258194,-1.4747002124786377,1.879960536956787,0.15747398138046265,0.6728553771972656,-0.4721128046512604,0.7243593335151672,0.5386407971382141,2.3179869651794434,6.471680164337158,-1.4111703634262085,-0.4885101318359375,-3.7580790519714355,-1.9418576955795288],[-2.7961888313293457,5.127686977386475,3.2924156188964844,1.5571188926696777,-0.9553070068359375,3.699538230895996,0.8015255928039551,-1.8324658870697021,0.1946870982646942,1.42902672290802,-1.1036322116851807,-1.273181676864624,1.2305032014846802,-4.121250629425049,1.4305942058563232,-3.1095802783966064,1.1827328205108643,0.5965836644172668,-3.545217752456665,3.036710500717163,-5.1061930656433105,-4.564241409301758,2.533351421356201,0.30767178535461426,2.5977072715759277,1.118632197380066,0.8337674736976624,2.979355812072754,1.8095762729644775,-0.4007101356983185,6.381735324859619,0.2196454405784607,0.8431413769721985,0.90326988697052,-2.8015072345733643,-1.4194869995117188,5.276403427124023,2.5837783813476562,-1.840800404548645,-3.508511543273926,-1.832231879234314,-1.8300137519836426,0.8529009819030762,0.5744284987449646,0.012201148085296154,2.2760980129241943,1.0192186832427979,-1.091475248336792,-1.7743738889694214,2.77493953704834,-2.258901834487915,3.8345258235931396,-0.9454948306083679,1.7488484382629395,-0.3481675088405609,0.5978121757507324,0.8039387464523315,-0.978888988494873,0.9689983129501343,-3.2446024417877197,-2.1189918518066406,1.2239267826080322,-0.5741934180259705,3.1008236408233643,1.6004198789596558,2.0588743686676025,0.2762454152107239,2.1714093685150146,3.2560319900512695,0.0019442761549726129,-1.6948928833007812,3.300616502761841,-3.2131447792053223,-0.37727105617523193,0.30084219574928284,2.519257068634033,0.9014511704444885,-2.52471923828125,-0.432956337928772,-0.9049912095069885,1.458117127418518,0.06614146381616592,-1.5693089962005615,0.8364311456680298,-1.204573631286621,-1.5617114305496216,3.138481855392456,1.7480156421661377,-3.50974702835083,0.3699660897254944,3.1028120517730713,-2.9468064308166504,-2.2127223014831543,0.6677114963531494,3.359985113143921,0.9112920761108398,-0.21026216447353363,-1.5091726779937744,2.936171293258667,3.4393177032470703,-6.263289451599121,0.5119975209236145,-3.262852907180786,1.92183256149292,3.1840660572052,-1.234181523323059,-8.281229972839355,2.5459649562835693,0.6248997449874878,1.5074304342269897,-5.560187816619873,-5.573596954345703,1.9295188188552856,-3.250720977783203,-4.028513431549072,-1.0419498682022095,-0.27308493852615356,2.094913959503174,-0.9601255655288696,0.5570762753486633,-0.8699712157249451,-3.7124199867248535,-2.8872570991516113,-3.631497383117676,-0.10860627144575119,-1.0125118494033813,-2.659308433532715,-1.774804711341858,-1.1346025466918945,-2.783111095428467,-2.6022262573242188,-1.3197402954101562,1.0576268434524536,0.2552247643470764,-0.5467395186424255,1.6894524097442627,0.12104592472314835,-1.536889672279358,2.3537051677703857,-0.009772246703505516,0.07547767460346222,-2.0912184715270996,1.3758001327514648,-0.2170889526605606,-3.235717296600342,1.0017564296722412,0.1102282777428627,0.3968210816383362,4.796286106109619,2.1852638721466064,-2.3364174365997314,-4.892576217651367,1.3922406435012817,-0.3685435652732849,0.3276232182979584,-2.105574369430542,0.552772581577301,0.9193998575210571,-2.3786461353302,-0.40050050616264343,6.6551313400268555,3.1088457107543945,0.06972452998161316,1.2155112028121948,-0.7232354283332825,-4.06284236907959,4.575075149536133,1.4817222356796265,1.9545962810516357,2.2984695434570312,-2.8648228645324707,3.161890745162964,2.400085926055908,1.290374517440796,-1.2972959280014038,1.8720077276229858,0.3048619031906128,1.2294105291366577,-1.083514928817749,2.501422882080078,4.316988945007324,1.6481144428253174,-2.2097842693328857,1.4371839761734009,-2.8317642211914062,-3.590552568435669,1.7357463836669922,-0.014212522655725479,-0.1642792522907257,1.1802055835723877,0.1748889684677124,-1.8213953971862793,-1.242897629737854,-0.009067283011972904,2.0871124267578125,-1.5732464790344238,0.9163663983345032,-3.695840358734131,1.702985405921936,-4.737244606018066,-3.7918975353240967,0.16813644766807556,-1.7420415878295898,-1.2510234117507935,-3.2081398963928223,1.4886109828948975,-3.2871391773223877,-1.0872547626495361,2.9206326007843018,-3.678983211517334,-0.5688125491142273,1.6643519401550293,-0.012175307609140873,0.4399907886981964,-2.7046799659729004,0.6155092716217041,3.3492319583892822,2.244584083557129,-4.051871299743652,4.234353065490723,-2.2791123390197754,1.8966212272644043,1.8235167264938354,-3.8273940086364746,2.374551773071289,2.0755553245544434,-2.1080985069274902,2.1212353706359863,2.838778495788574,3.8641505241394043,3.9286162853240967,0.05687088519334793,0.4348122179508209,-0.8338748216629028,-2.1748387813568115,6.535162925720215,2.1467392444610596,3.7677500247955322,-3.576016426086426,-4.304173469543457,-3.731959581375122,3.21541428565979,-1.045453429222107,-2.823256254196167],[-3.2218596935272217,-1.705844521522522,0.02544141747057438,-0.6943962574005127,-4.083090782165527,-0.7755522131919861,-1.4690998792648315,2.489622116088867,-0.8790562748908997,0.6197237372398376,-1.900165319442749,4.058071136474609,-1.9392837285995483,1.5571833848953247,-0.10883043706417084,-1.6370986700057983,-2.4321141242980957,0.8885006904602051,2.5184719562530518,-0.1230829581618309,2.4885897636413574,-0.5020295977592468,3.249643564224243,3.6567893028259277,-2.614941120147705,0.9025360345840454,1.4694541692733765,-0.7753826379776001,1.4302617311477661,-2.8749189376831055,-3.012960433959961,0.06634028255939484,2.7483649253845215,0.9816327691078186,-2.688267707824707,1.2374985218048096,0.086748868227005,2.886904001235962,2.059556245803833,2.8326239585876465,6.676789283752441,-0.7681424021720886,1.3764729499816895,2.3115694522857666,-4.720211982727051,-1.1390583515167236,1.7723602056503296,2.012669801712036,1.3835077285766602,2.2551324367523193,1.6471751928329468,1.343062400817871,2.049428939819336,1.2485852241516113,4.907320499420166,3.859588384628296,0.451282799243927,-2.63232684135437,-0.9306934475898743,1.4322863817214966,1.859196662902832,-1.219216227531433,4.518853187561035,-2.6295809745788574,-1.7339224815368652,0.08014748245477676,2.778982162475586,0.6819440722465515,3.080134391784668,-2.319060802459717,1.7157882452011108,-1.069277286529541,1.694029450416565,2.1366028785705566,-2.905400276184082,2.058457612991333,0.7460482120513916,2.7528443336486816,3.736076593399048,0.4446035921573639,0.27721574902534485,0.48904576897621155,-1.951206088066101,1.795623779296875,-6.100672245025635,-1.1124446392059326,-5.379726886749268,1.4946330785751343,2.982508897781372,0.012370976619422436,-4.126993179321289,-3.3302342891693115,1.0970149040222168,1.4510878324508667,1.3657959699630737,-0.11603608727455139,0.39159438014030457,-3.3342676162719727,-2.102113962173462,-0.1552516371011734,1.4464784860610962,-2.908273935317993,-4.571377277374268,-3.115243911743164,1.99651038646698,3.269242286682129,-1.3113096952438354,2.0347886085510254,-2.6873936653137207,0.3670918941497803,-6.341864109039307,2.0221874713897705,-2.7734038829803467,-1.1052603721618652,-1.7468054294586182,-0.8382287621498108,0.019704312086105347,3.6326563358306885,-0.04114168509840965,0.8719556927680969,1.6560699939727783,-1.0360004901885986,-3.2676174640655518,-0.4456084668636322,2.557448625564575,0.2706526517868042,-1.5021063089370728,-0.5522192120552063,-1.3684202432632446,4.038302898406982,-0.9321606159210205,0.8239790201187134,3.7567672729492188,0.4879183769226074,2.0712273120880127,-2.319664716720581,5.8791913986206055,0.4030383825302124,2.469958543777466,1.07430899143219,-1.9283233880996704,1.2562613487243652,-0.11827036738395691,-1.824263334274292,0.5961662530899048,3.6867122650146484,1.6809989213943481,-1.9327484369277954,-2.584773540496826,-2.9180142879486084,0.040036048740148544,0.5728132128715515,-6.308076858520508,-3.9918277263641357,-0.1431761234998703,1.7025829553604126,-6.292924880981445,-1.7725038528442383,0.37856271862983704,-2.37712025642395,-1.9400655031204224,-0.5773365497589111,-1.291661024093628,0.9155126214027405,-1.4354156255722046,-0.15412303805351257,-0.3872263729572296,-2.4501242637634277,-1.6778634786605835,-2.530644655227661,2.585273504257202,-2.777076482772827,-0.8897945880889893,2.9602034091949463,0.679284930229187,-0.8910782337188721,0.07958623021841049,0.7092162370681763,-0.25911232829093933,2.157560348510742,-0.3230920732021332,0.7163255214691162,-1.1085823774337769,-1.1870758533477783,-4.453415393829346,1.5194231271743774,-3.2649924755096436,1.9611769914627075,-2.383516311645508,-3.8069562911987305,2.954524517059326,-0.9926580190658569,-2.1678435802459717,4.386956691741943,-0.6417651772499084,-0.6752859354019165,2.238100528717041,-0.4818415641784668,1.6291842460632324,-2.6813385486602783,-1.3918719291687012,2.512324094772339,3.567009925842285,0.8709656000137329,-0.5933605432510376,1.3215187788009644,2.142390727996826,-1.5561788082122803,0.1696331799030304,-1.4231175184249878,3.414546489715576,-3.9992401599884033,-2.7290444374084473,-4.768628120422363,0.2012801468372345,3.7106411457061768,-0.6020703911781311,1.775490403175354,-1.978236198425293,1.738107442855835,-1.8212050199508667,1.5104398727416992,4.480768203735352,2.957005739212036,-2.4927072525024414,4.609785079956055,2.209277391433716,-0.06981196254491806,-0.8745096325874329,0.6189063191413879,0.5867002010345459,1.6908859014511108,0.904677152633667,0.6275545954704285,-3.980001211166382,2.3128442764282227,-2.4891457557678223,-1.9764106273651123,3.608773946762085,0.34619975090026855,1.117743968963623,1.7649978399276733,-6.360023498535156,1.289296269416809]],"biases":[0.034170858561992645,-0.16251088678836823,-0.03498711809515953,0.04382724314928055,-0.18456515669822693,-0.11067067831754684,-0.10966458171606064,0.1300925612449646,-0.02559935860335827,0.005794107913970947,-0.17050990462303162,-0.14801456034183502,-0.07951996475458145,-0.08247441798448563,-0.05198686942458153,-0.1398920863866806]},{"weights":[[2.2487685680389404,-24.628032684326172,-13.52282428741455,9.434529304504395,-28.750442504882812,11.13687801361084,-9.003382682800293,1.1532403230667114,-8.339964866638184,1.8479560613632202,-8.320868492126465,-7.392863750457764,5.031632900238037,-3.0216658115386963,4.359073638916016,-14.253511428833008],[9.419005393981934,8.558379173278809,-3.2362725734710693,5.4943342208862305,-13.214909553527832,7.401284217834473,-9.418058395385742,9.037129402160645,10.663078308105469,-5.964764595031738,5.877031326293945,-6.481135845184326,-4.5926594734191895,-6.89858865737915,11.861504554748535,2.540313482284546],[-23.559307098388672,1.4693936109542847,9.903576850891113,6.666842460632324,10.188912391662598,-19.177045822143555,-2.791290044784546,1.5214632749557495,2.7036659717559814,1.996427297592163,6.331318378448486,-6.500199317932129,-13.910074234008789,11.221570014953613,-7.8512701988220215,19.010902404785156],[-6.092645168304443,15.13160514831543,-20.010587692260742,4.852372169494629,-2.403205394744873,-1.432778239250183,-1.290055513381958,0.6447425484657288,7.4600067138671875,-7.797080993652344,0.8297936320304871,-7.116103649139404,-2.599344491958618,-5.578875541687012,10.934514045715332,-4.275416374206543],[14.150934219360352,-4.267911434173584,3.253041982650757,-0.14439918100833893,3.814293146133423,6.018232345581055,-0.9934030175209045,-7.618627548217773,-0.7678139209747314,2.324059247970581,6.236013889312744,10.889892578125,-0.6017537117004395,16.106714248657227,17.706275939941406,-5.167125701904297],[9.113493919372559,-2.4273552894592285,-2.6095008850097656,11.735092163085938,4.798545837402344,-1.6694246530532837,6.391451835632324,-2.7294068336486816,1.1798568964004517,9.840657234191895,-3.8816514015197754,-7.244429588317871,13.716989517211914,-13.283614158630371,1.7577542066574097,-17.152854919433594],[4.4672770500183105,-9.759905815124512,-1.2845414876937866,-0.14359331130981445,7.918161869049072,11.773809432983398,8.754934310913086,13.89696216583252,-7.127017498016357,14.031850814819336,6.687440395355225,3.181305408477783,-5.588243007659912,7.682406902313232,9.80530834197998,-3.2989439964294434],[0.7786457538604736,-3.5057098865509033,1.3253132104873657,0.39376047253608704,13.969427108764648,4.743934631347656,-1.1286808252334595,20.885238647460938,8.550376892089844,2.0188705921173096,0.24856369197368622,3.721055746078491,-1.0744483470916748,-4.370336055755615,1.4861034154891968,5.351095199584961],[-0.8261181712150574,0.08074409514665604,1.433924913406372,-9.49853515625,-0.6632344722747803,4.371555805206299,-18.06110382080078,-9.848847389221191,-14.231925010681152,-6.869833946228027,-11.417906761169434,-22.642160415649414,2.109926223754883,-4.2503838539123535,9.612319946289062,-26.554555892944336],[16.646724700927734,10.288762092590332,-0.8092495203018188,6.487496852874756,-3.346287250518799,-4.7710957527160645,0.6811147332191467,2.6819827556610107,-5.879889011383057,-0.348201721906662,2.1894898414611816,28.32152557373047,13.255922317504883,3.794940233230591,3.4438936710357666,-2.8286895751953125],[-4.730856418609619,-3.823455810546875,-1.2121798992156982,-4.134411811828613,7.173020839691162,-18.53630256652832,-13.73039722442627,-6.7554402351379395,-0.17130902409553528,-25.081443786621094,15.983726501464844,-2.524677276611328,-11.340105056762695,-18.71778678894043,-2.073890209197998,-12.226909637451172],[12.66801643371582,-15.138506889343262,2.989638090133667,2.7329390048980713,10.033953666687012,2.9487087726593018,5.673892498016357,5.0207743644714355,-4.953604221343994,8.633610725402832,-4.406388282775879,0.002326369285583496,-10.716819763183594,-0.6686977744102478,-8.048416137695312,2.6180179119110107],[2.6523141860961914,0.8598732948303223,4.993916034698486,19.589414596557617,7.385140419006348,1.7081671953201294,-10.039578437805176,8.231411933898926,13.321033477783203,9.767297744750977,11.417924880981445,-22.195276260375977,6.774594306945801,-0.7727183103561401,-1.7210036516189575,-9.034761428833008],[-7.911029815673828,-4.7399373054504395,11.977519989013672,-0.601246178150177,-10.756525993347168,-3.464643955230713,-12.104588508605957,0.9593955874443054,4.950383186340332,-3.3512957096099854,14.611817359924316,-6.529628276824951,-16.354324340820312,16.632638931274414,-2.4745209217071533,3.3110435009002686],[15.12364673614502,4.47435998916626,2.834127187728882,10.421286582946777,-19.070566177368164,1.1409404277801514,5.551357746124268,-0.5725523829460144,27.722564697265625,6.976726055145264,-0.32972458004951477,-15.578375816345215,9.718523025512695,-2.825376510620117,6.829272747039795,-7.305607318878174],[-17.43448829650879,19.953516006469727,-6.809808254241943,-3.8099889755249023,-11.107189178466797,6.948408126831055,-14.851025581359863,-2.6824352741241455,-12.613571166992188,3.94604229927063,-13.256166458129883,12.713574409484863,-7.998950004577637,-8.544981956481934,6.627063274383545,-15.014074325561523]],"biases":[0.1372695118188858,0.07332675904035568,-0.008829115889966488,0.06218859925866127,-0.11940661072731018,0.12330257147550583,0.18806162476539612,0.10336627811193466,-0.1600686013698578,0.15393438935279846,0.05350124090909958,-0.07905153930187225,0.0013324945466592908,0.1496511995792389,0.1965637505054474,-0.025929102674126625]},{"weights":[[-7.103793144226074,27.662689208984375,8.309721946716309,-7.849515438079834,-22.20121955871582,33.148582458496094,13.339144706726074,-12.531994819641113,-5.953555583953857,-29.14310646057129,24.554821014404297,-23.911075592041016,-2.343844413757324,-26.545520782470703,19.237411499023438,20.13129997253418],[-9.766265869140625,-27.06645965576172,-20.15069007873535,-7.921020030975342,27.474580764770508,20.05188751220703,-30.399383544921875,-9.243034362792969,-12.070995330810547,-7.1602277755737305,-18.41569709777832,-4.629717826843262,17.069019317626953,-12.728314399719238,1.1393696069717407,-18.732934951782227],[-43.1979866027832,-27.35284423828125,38.21044921875,1.8693419694900513,-30.37253761291504,12.0963716506958,14.767326354980469,-2.9819490909576416,-14.54286003112793,-35.72825622558594,0.32426485419273376,28.632116317749023,-31.14397621154785,19.669721603393555,-13.226140975952148,4.361508846282959],[-27.255311965942383,36.20914840698242,14.299947738647461,6.294464588165283,-22.186695098876953,-29.623477935791016,-5.6931471824646,-0.810928225517273,-2.313648223876953,2.816868543624878,23.518295288085938,-29.897899627685547,3.7391695976257324,30.160865783691406,3.2637462615966797,3.673377752304077]],"biases":[-0.18733811378479004,-0.18683364987373352,-0.16892199218273163,0.009734469465911388]}],"inputLookup":null,"inputLookupLength":0,"outputLookup":null,"outputLookupLength":0,"options":{"inputSize":244,"outputSize":4,"binaryThresh":0.5,"activation":"sigmoid","hiddenLayers":[16,16]},"trainOpts":{"activation":"sigmoid","iterations":20000,"errorThresh":0.005,"log":false,"logPeriod":10,"leakyReluAlpha":0.01,"learningRate":0.3,"momentum":0.1,"callbackPeriod":10,"timeout":"Infinity","beta1":0.9,"beta2":0.999,"epsilon":1e-8}}