{"type":"NeuralNetwork","sizes":[18,16,16,4],"layers":[{"weights":[],"biases":[]},{"weights":[[1.7796683311462402,0.7842974066734314,0.24729956686496735,2.3459010124206543,-0.591525137424469,0.4619791507720947,0.4991125464439392,-1.506894588470459,0.9509345293045044,-0.5113757848739624,-2.6967625617980957,-0.6975930333137512,-2.4700002670288086,1.2053948640823364,2.4606175422668457,1.2334946393966675,-1.8624563217163086,2.574045419692993],[-2.2231132984161377,-0.0032511185854673386,0.6855304837226868,-0.7989428639411926,1.0007370710372925,3.835456371307373,0.09329266101121902,-0.16818663477897644,-0.03340316191315651,-0.7301426529884338,0.6187304258346558,-0.5711778402328491,2.738529682159424,0.3236285448074341,-0.07579910010099411,-0.4398880898952484,3.092576026916504,0.27309390902519226],[-3.167616605758667,2.474914789199829,2.1182806491851807,0.003007347695529461,-2.362150192260742,-1.7879337072372437,1.946225881576538,-2.1773884296417236,-0.9777756929397583,0.2843369245529175,-0.4291425347328186,0.06686223298311234,0.17304442822933197,0.48418936133384705,-1.9550166130065918,-0.8382470607757568,1.000815510749817,-1.4245669841766357],[1.6344761848449707,-3.91742205619812,-0.17133137583732605,0.6028643250465393,-2.9164671897888184,-4.9938178062438965,-0.8700239658355713,1.4997525215148926,1.1137280464172363,-0.4422222971916199,-2.1044981479644775,-0.049417462199926376,1.2319226264953613,-0.5751038193702698,-1.1566627025604248,0.12913182377815247,-2.373765707015991,0.9071473479270935],[-1.2979506254196167,0.0881185308098793,-1.0481560230255127,0.48361533880233765,-1.6220494508743286,1.2141064405441284,0.3805563747882843,1.3191587924957275,1.3468966484069824,-1.2024929523468018,1.2713923454284668,-0.8327771425247192,2.1087982654571533,0.04341046139597893,-1.9983394145965576,1.079839825630188,-0.08203363418579102,-3.4617154598236084],[-0.6244534254074097,0.5071580410003662,-0.8868921995162964,-0.3687525689601898,-1.520328164100647,-0.0535723976790905,2.1598927974700928,-0.006862156558781862,-1.0701388120651245,-0.8729748129844666,3.098506450653076,2.3447840213775635,-1.131373643875122,1.465326189994812,-0.2253013551235199,2.4909136295318604,-1.433603286743164,-0.28719526529312134],[-1.644307255744934,1.3523144721984863,1.336363434791565,-1.0224084854125977,1.9303867816925049,-0.9324920773506165,-0.6939968466758728,-3.8313779830932617,-0.3142381012439728,-2.6673591136932373,-1.1191250085830688,1.2639187574386597,0.5322868227958679,3.73984956741333,1.966926097869873,-4.787513732910156,1.0674439668655396,-0.863135576248169],[-1.0724490880966187,-1.1150983572006226,-1.3492640256881714,3.1343891620635986,-1.0890411138534546,0.6191266179084778,-1.2219215631484985,0.16877199709415436,-1.0328842401504517,0.35359928011894226,-0.4642322361469269,-2.4043755531311035,4.1289591789245605,-0.8885533213615417,1.4195754528045654,-0.5779123902320862,0.9159773588180542,-4.13612699508667],[-0.8653282523155212,0.41079777479171753,0.07652390003204346,-1.3625051975250244,-0.997120201587677,1.024632453918457,-1.2030198574066162,-2.4753646850585938,0.3821673095226288,1.3446840047836304,2.052168369293213,-0.4413321018218994,0.7156247496604919,1.0648189783096313,-0.854637622833252,-0.17719879746437073,-1.7338324785232544,-4.7238030433654785],[1.933485984802246,-0.4785389304161072,-2.1424381732940674,0.5408594012260437,2.2545833587646484,2.2188785076141357,1.475477933883667,1.7875902652740479,0.5399069786071777,0.106310173869133,-1.1117150783538818,-1.442314624786377,1.3594890832901,-0.08684205263853073,-2.990144968032837,0.4454158842563629,-2.1837375164031982,0.8548532724380493],[-0.7727280259132385,2.883394956588745,-2.5226056575775146,3.60011887550354,-0.08442278951406479,0.8728122115135193,2.881640672683716,-0.16588351130485535,0.10450667142868042,1.3732942342758179,-1.0646768808364868,-2.5045175552368164,1.2913415431976318,-0.28304657340049744,1.5893597602844238,0.9151855707168579,-0.6962311863899231,-0.8168338537216187],[2.5739758014678955,0.37536919116973877,1.2432494163513184,2.3659205436706543,0.4751628041267395,1.8106220960617065,0.8894228935241699,-0.9035539627075195,1.8350683450698853,0.25482508540153503,-1.393863320350647,1.427598476409912,-0.8046025037765503,0.1571185290813446,-2.891289234161377,-1.166602611541748,-2.2371127605438232,-1.7011336088180542],[4.134490013122559,1.9171382188796997,1.4661136865615845,-0.3260517716407776,-0.7773355841636658,0.8341371417045593,-4.258316993713379,-0.8133733868598938,-0.539111316204071,-0.17382152378559113,-0.06382244825363159,0.6843279004096985,2.9801347255706787,-0.24505631625652313,-2.458125352859497,-0.03505914285778999,0.528694748878479,0.1093783974647522],[3.3395984172821045,-2.63130259513855,-0.9187245965003967,-3.0765655040740967,2.4927892684936523,-1.2714952230453491,0.16032715141773224,1.501662254333496,-1.6146272420883179,2.6079161167144775,0.06260578334331512,0.6299832463264465,4.902218341827393,0.2735225260257721,-2.4176440238952637,-0.06323421001434326,-0.11534416675567627,-2.365784168243408],[1.6815553903579712,-1.9598052501678467,1.079749584197998,0.5859012603759766,3.3078606128692627,2.906818151473999,2.522583246231079,-0.825086236000061,-2.3223860263824463,-1.4751334190368652,-2.773756504058838,-0.32614579796791077,-0.9246106743812561,-1.6102476119995117,0.1368781179189682,-2.124767541885376,-0.7737094163894653,-3.2178096771240234],[4.345738887786865,-1.174979567527771,1.8886889219284058,-0.8305866718292236,-0.5625261068344116,3.140786647796631,-0.3884841799736023,-0.2297130972146988,-0.5151411890983582,-0.1336270272731781,-2.766873598098755,0.6618157029151917,-2.6666765213012695,-0.4120076298713684,1.055940866470337,-0.3576279878616333,-0.5104284286499023,0.10693629086017609]],"biases":[-0.0989433154463768,-0.1337023824453354,0.02529310993850231,-0.012192022055387497,0.16616468131542206,0.002000621519982815,0.15095965564250946,0.08789633959531784,-0.1304253786802292,0.15259625017642975,-0.10380931198596954,0.1775866150856018,0.15184040367603302,-0.04113629087805748,0.11773816496133804,-0.08472352474927902]},{"weights":[[-0.023027706891298294,0.5757128000259399,-0.586297869682312,0.5242506265640259,-1.5243057012557983,-0.16636040806770325,-1.2713441848754883,0.4426213204860687,3.711442232131958,-1.7177718877792358,-3.409672737121582,-0.9410461783409119,-2.40433669090271,0.7463459372520447,1.3057142496109009,7.396717548370361],[0.7972588539123535,-0.0661846399307251,3.1078245639801025,2.9361865520477295,1.5652738809585571,2.2501325607299805,-2.328030824661255,1.8204344511032104,-1.031379222869873,-2.997633218765259,-0.30300426483154297,-1.6943219900131226,-0.8260248899459839,0.286150187253952,2.0857701301574707,-0.3475825786590576],[-4.007791996002197,-3.2433888912200928,-1.906591773033142,-0.6017608046531677,1.5948165655136108,-1.2837902307510376,0.016447393223643303,3.3384828567504883,-3.35041880607605,1.3180227279663086,0.8266986012458801,2.5138401985168457,0.8841176629066467,-0.4047643542289734,0.021274620667099953,0.4211016297340393],[-0.4415578246116638,-3.336554527282715,1.381324052810669,0.13074158132076263,-0.6729357838630676,1.9557641744613647,-0.25041061639785767,0.6619369983673096,-1.4293010234832764,0.2840017080307007,-2.7342586517333984,0.9216145277023315,-1.256144404411316,0.7547798752784729,0.04510723426938057,-2.790355920791626],[-1.9858791828155518,0.5226461887359619,-1.4289578199386597,1.0479440689086914,-0.00006639329512836412,0.1948132961988449,0.3890829384326935,-0.852491021156311,1.1004674434661865,-0.10017061978578568,-0.2952525317668915,1.2038652896881104,-1.633797287940979,-0.04806816950440407,-0.1560114026069641,0.7943418025970459],[1.6334514617919922,-0.2365698367357254,1.4488881826400757,-1.9022314548492432,-1.5655475854873657,-0.7062007188796997,-1.3912441730499268,-0.6675103902816772,2.559340715408325,2.5269265174865723,-1.240157127380371,-2.7710349559783936,0.719113826751709,0.03196907415986061,-3.828335762023926,-1.5800211429595947],[-1.563427448272705,-0.5050696730613708,1.8712998628616333,-3.325460433959961,4.029544830322266,1.712688684463501,-0.2020808756351471,0.748628556728363,0.9930227994918823,-2.3247392177581787,1.96759033203125,2.851972818374634,0.6353349089622498,0.507535457611084,1.2971330881118774,1.5100549459457397],[-0.7406908869743347,-1.8023678064346313,3.7621006965637207,1.6981854438781738,3.4836366176605225,1.0961064100265503,-0.7922142744064331,1.4076690673828125,2.8021633625030518,-2.018871307373047,-2.4422566890716553,-0.11966829746961594,-1.7675925493240356,-1.454782485961914,-0.3362387716770172,-1.4924513101577759],[-0.04657302424311638,-1.088944911956787,4.547274112701416,0.06542214006185532,-3.9315185546875,-0.7772954702377319,-1.3380205631256104,-3.0963134765625,0.698941707611084,-1.4368175268173218,-0.5324605703353882,-3.2907304763793945,-2.3171586990356445,-4.6639485359191895,-0.45511651039123535,-0.3333354890346527],[-0.0997418612241745,-2.2195115089416504,-3.826756238937378,1.34449303150177,-2.4137914180755615,-0.21567347645759583,-0.9877021908760071,1.026144027709961,1.8076105117797852,-3.276026487350464,-0.8568052649497986,-0.507546603679657,1.1365965604782104,-0.2938232719898224,1.5809051990509033,1.0638078451156616],[-2.7368545532226562,2.0011913776397705,0.2626986801624298,-1.752977967262268,-0.8297173380851746,1.0518742799758911,-1.4038166999816895,2.381155490875244,-1.2012667655944824,-0.5956570506095886,-0.6510604023933411,-2.091412305831909,-1.7788628339767456,0.43423551321029663,0.9597623944282532,3.6045114994049072],[0.46141913533210754,2.9196231365203857,0.8713403940200806,-1.076174020767212,0.5507779121398926,1.1957563161849976,1.1741602420806885,-1.154536247253418,0.8421656489372253,-4.533863544464111,-0.9998825192451477,1.3103904724121094,-1.0432425737380981,0.4532562494277954,1.6266320943832397,-2.6352314949035645],[-0.5798080563545227,2.498889207839966,-1.3029760122299194,2.9597151279449463,-0.42111682891845703,-2.9684035778045654,-0.7275397777557373,0.35570186376571655,-3.106121063232422,6.009058475494385,0.8278823494911194,0.8526895642280579,0.8862523436546326,-0.0729551836848259,1.7488001585006714,-3.3910722732543945],[3.1074230670928955,0.3744916319847107,-1.3400076627731323,3.5059142112731934,-1.6391210556030273,0.7192977666854858,2.7445077896118164,2.7531254291534424,1.9298012256622314,-1.6368552446365356,-3.7287654876708984,-5.68735408782959,-3.5548362731933594,0.18623757362365723,2.6632347106933594,-2.184335231781006],[-2.543668508529663,-0.2815687954425812,-0.23832961916923523,0.27625221014022827,1.6324357986450195,-2.003709554672241,0.211797297000885,-3.8251757621765137,-0.20518149435520172,1.0271154642105103,-2.694074869155884,0.8638352155685425,1.9676246643066406,4.5124969482421875,-0.025767162442207336,-6.194427013397217],[1.4695119857788086,-0.5208014845848083,0.4539203941822052,-1.358616828918457,-2.5115561485290527,-0.2556234300136566,0.7838236093521118,-1.880268931388855,-0.3474721610546112,-1.2145087718963623,-0.4815053343772888,0.3395853638648987,0.7392293214797974,4.436054229736328,-0.21565364301204681,0.7893474102020264]],"biases":[0.07528328895568848,0.12268663942813873,-0.14599335193634033,-0.07328945398330688,0.13587434589862823,-0.04158783331513405,0.19650207459926605,-0.0992860421538353,0.07686109840869904,0.10676709562540054,0.13117516040802002,0.13291357457637787,0.1366093009710312,0.061498817056417465,-0.19988329708576202,0.06869321316480637]},{"weights":[[4.462810039520264,-0.30270400643348694,3.3210268020629883,-7.108160495758057,2.034940719604492,-0.027979424223303795,0.7453025579452515,-2.869896411895752,-0.13292020559310913,0.8578166365623474,0.6765204071998596,-1.4532469511032104,3.2421467304229736,0.05189812183380127,-0.9248276948928833,1.2812600135803223],[-5.0324931144714355,-0.5544477701187134,-3.576852321624756,8.058399200439453,1.4276442527770996,-0.8886882066726685,1.1249059438705444,-2.315295696258545,4.388121128082275,-0.7886720299720764,-0.8614382743835449,-2.353896379470825,4.964738368988037,0.6163208484649658,3.9358062744140625,4.795077800750732],[2.741589069366455,0.7639042139053345,-1.4520045518875122,-1.3918951749801636,-0.5652974843978882,3.1701457500457764,2.570594310760498,-1.0530563592910767,-0.5898427963256836,1.7939530611038208,-1.9882822036743164,0.616339385509491,-0.26286008954048157,0.7466025948524475,1.0422042608261108,-9.853123664855957],[-0.21299104392528534,1.85483717918396,3.901155710220337,-2.8092455863952637,-6.860151767730713,-0.08907826989889145,2.9161460399627686,-0.10213473439216614,-6.786571025848389,-0.8807713389396667,6.222068786621094,-1.3045977354049683,2.30194091796875,2.128133773803711,2.2378921508789062,-2.3424301147460938]],"biases":[-0.16962605714797974,-0.13088476657867432,0.06084821745753288,0.05260072648525238]}],"inputLookup":null,"inputLookupLength":0,"outputLookup":null,"outputLookupLength":0,"options":{"inputSize":18,"outputSize":4,"binaryThresh":0.5,"activation":"sigmoid","hiddenLayers":[16,16]},"trainOpts":{"activation":"sigmoid","iterations":20000,"errorThresh":0.005,"log":false,"logPeriod":10,"leakyReluAlpha":0.01,"learningRate":0.3,"momentum":0.1,"callbackPeriod":10,"timeout":"Infinity","beta1":0.9,"beta2":0.999,"epsilon":1e-8}}