{"type":"NeuralNetwork","sizes":[18,16,16,4],"layers":[{"weights":[],"biases":[]},{"weights":[[0.5574330687522888,-2.068608283996582,1.5781866312026978,1.629705786705017,1.5956066846847534,-0.14974066615104675,-1.2579816579818726,-3.8608851432800293,0.1553085297346115,-1.4718059301376343,-3.358339548110962,1.9461989402770996,-1.0588769912719727,3.1519644260406494,0.07163499295711517,1.2418462038040161,-1.758826732635498,1.8022832870483398],[0.8907925486564636,-4.224552154541016,-2.4379563331604004,1.0926254987716675,-2.8342201709747314,1.6449546813964844,2.150409698486328,-0.9932621121406555,-0.2444128841161728,-1.3444427251815796,-2.308298349380493,-0.6816531419754028,6.302053451538086,-0.3215470612049103,2.5023891925811768,0.4615485966205597,2.853003978729248,0.6625969409942627],[-3.293246030807495,3.7037248611450195,-1.7529513835906982,-2.5017659664154053,0.45429331064224243,-0.6936984062194824,5.023272514343262,-4.477773189544678,2.330373764038086,-1.4213835000991821,0.04799804091453552,-1.3321589231491089,0.327345073223114,0.9363683462142944,-2.1408047676086426,1.9022128582000732,3.241091251373291,-2.6531014442443848],[2.513655424118042,-5.029345989227295,-0.3543185591697693,-2.130490779876709,-6.938277721405029,-5.183658599853516,2.3219027519226074,-0.3022345006465912,0.8933534622192383,5.086495876312256,-3.819941282272339,-1.283206820487976,0.02272365614771843,1.6270034313201904,-0.7235540747642517,5.305027961730957,-2.7617204189300537,2.2726221084594727],[-1.9933853149414062,0.9803450703620911,-0.5007691979408264,4.2787275314331055,-2.9807772636413574,2.439455986022949,-2.007484197616577,0.6134693622589111,0.2397521734237671,-4.583968639373779,0.18071091175079346,0.15863637626171112,3.715296983718872,0.005442738067358732,-1.9309968948364258,0.06910328567028046,-2.6314809322357178,-4.692761421203613],[-1.401841163635254,4.369229316711426,-0.14981919527053833,2.39786958694458,-1.609063744544983,-1.8112025260925293,2.371264696121216,-0.25273555517196655,-0.8264247179031372,-3.124882698059082,2.385070562362671,2.703662633895874,-0.6007744669914246,1.123353362083435,1.302363634109497,-0.1648463010787964,-0.7311589121818542,0.9841486811637878],[0.03260679915547371,0.09804915636777878,-0.009012479335069656,0.955351710319519,1.709730863571167,-3.068354606628418,1.8561805486679077,-4.728916645050049,-2.4782543182373047,-5.465670108795166,0.37683558464050293,-0.5139358043670654,0.9273746013641357,2.6642799377441406,1.1478068828582764,-1.5355476140975952,3.3503878116607666,-3.1936280727386475],[0.5857746005058289,1.5954186916351318,-1.1852734088897705,6.7935709953308105,-1.0728977918624878,-0.5657907128334045,0.46106967329978943,-0.4360467493534088,-0.29892241954803467,0.8622817397117615,-0.9453136920928955,-4.815339088439941,8.706388473510742,-1.6548069715499878,-0.6464345455169678,-2.673966884613037,1.4825000762939453,-4.046298980712891],[1.4013516902923584,2.9499056339263916,1.0651599168777466,-1.6714876890182495,-1.9349192380905151,-0.3942578434944153,-0.8891950249671936,-4.371933937072754,0.5765619277954102,-1.2451688051223755,3.5698819160461426,-0.3278086185455322,0.6033422350883484,0.10912129282951355,1.880893588066101,-1.7305809259414673,-0.5201195478439331,-6.464920997619629],[1.4031788110733032,2.6808111667633057,-1.5918141603469849,2.65820050239563,3.5612077713012695,1.651740550994873,3.6131396293640137,2.515636444091797,-0.5523098111152649,1.23349928855896,-1.7744269371032715,-6.117021083831787,-2.073164939880371,-1.258176326751709,0.059172213077545166,-0.46161946654319763,0.23802649974822998,-0.18189497292041779],[0.326214075088501,7.171763896942139,-3.0581438541412354,6.165642261505127,0.7593667507171631,2.0709826946258545,3.8980050086975098,1.5825238227844238,1.0818487405776978,-4.445716381072998,-1.8305200338363647,-0.9664525389671326,1.7759065628051758,-0.18218065798282623,1.9490206241607666,0.6201156973838806,-3.362715244293213,0.5765269994735718],[4.630603313446045,3.0068840980529785,0.9432505369186401,0.9782052040100098,-0.2968810498714447,3.2342076301574707,-2.6479673385620117,0.6749253273010254,2.558183431625366,0.42601269483566284,1.3649362325668335,0.9853043556213379,0.10405947268009186,-0.37564581632614136,-3.0692102909088135,-0.9691043496131897,-1.632179617881775,-0.11481837928295135],[2.821286916732788,3.065323829650879,3.9682836532592773,3.301102876663208,-2.568605899810791,-2.6094775199890137,-6.207082271575928,-0.1425938606262207,1.2234708070755005,0.6177073121070862,2.9961156845092773,-0.8316097855567932,3.5331220626831055,-1.610815405845642,-4.573565483093262,-1.010113000869751,-1.5265223979949951,2.3202669620513916],[5.149592876434326,-6.568288803100586,-1.8653919696807861,-3.8825902938842773,2.140970230102539,0.3671288788318634,-1.8289642333984375,2.027918577194214,-0.5304751992225647,2.039630174636841,-1.3460423946380615,-0.11989803612232208,7.640571117401123,-0.6232879161834717,0.19003000855445862,-4.959601402282715,1.2015818357467651,0.7150198817253113],[0.2638436257839203,-2.149142265319824,-0.22340762615203857,0.48512277007102966,3.2461094856262207,3.6083314418792725,6.7195000648498535,-2.1505415439605713,-2.461559295654297,-2.8106284141540527,-1.6696690320968628,0.5557128190994263,-0.4697496294975281,2.2753713130950928,1.940569281578064,-0.9034097194671631,2.0663223266601562,1.093178153038025],[7.992554664611816,-1.457635760307312,0.740753173828125,-1.0048753023147583,-0.11709147691726685,4.6341423988342285,-0.3018169105052948,-0.2936061918735504,-0.24051471054553986,-0.3739164471626282,-0.4226861298084259,0.3091450035572052,-0.9381244778633118,-2.898601531982422,-0.29550793766975403,-1.6416738033294678,2.1665406227111816,2.626659393310547]],"biases":[-0.0989433154463768,-0.1337023824453354,0.02529310993850231,-0.012192022055387497,0.16616468131542206,0.002000621519982815,0.15095965564250946,0.08789633959531784,-0.1304253786802292,0.15259625017642975,-0.10380931198596954,0.1775866150856018,0.15184040367603302,-0.04113629087805748,0.11773816496133804,-0.08472352474927902]},{"weights":[[-2.298448085784912,2.2870919704437256,-0.516646683216095,2.7379932403564453,1.150393009185791,-0.9399369359016418,0.5462736487388611,-0.09748513251543045,3.47135066986084,-4.530807971954346,-5.263468265533447,-1.128408670425415,-4.352803707122803,0.6684700846672058,2.7337560653686523,7.235104560852051],[1.5900582075119019,-0.30242931842803955,0.7736629247665405,2.0932140350341797,4.386714458465576,-1.5036202669143677,-1.5438331365585327,2.928239345550537,3.2009029388427734,-4.9863691329956055,2.330068349838257,-1.0816634893417358,-0.8333910703659058,1.8993746042251587,5.015870571136475,-1.5488520860671997],[0.9992062449455261,-1.3386824131011963,-0.7560681700706482,-4.3061652183532715,6.295539379119873,1.2217857837677002,1.0156645774841309,2.9317734241485596,1.6005938053131104,-0.470328688621521,0.37270092964172363,3.7386882305145264,1.1011179685592651,-1.9913015365600586,2.182985782623291,5.098979949951172],[-2.2664968967437744,-2.3055927753448486,2.1572277545928955,-1.5572253465652466,-3.01130747795105,3.8656578063964844,-1.5899739265441895,-1.5970607995986938,-1.9662598371505737,1.8646026849746704,-2.0383572578430176,-0.3749345541000366,-1.186862587928772,1.4335049390792847,-1.0295543670654297,-4.174576282501221],[-0.384505033493042,-0.6135026216506958,-0.44570404291152954,-1.3737491369247437,1.1235063076019287,1.8578230142593384,1.102878212928772,-0.16779479384422302,-0.16479241847991943,0.20467987656593323,-3.1843066215515137,2.20760178565979,-2.5717289447784424,-2.6478660106658936,-0.6512477397918701,4.1141862869262695],[1.6481913328170776,-1.0399223566055298,5.650904655456543,0.5842475295066833,-0.24688544869422913,-3.8020310401916504,-0.1896205097436905,1.297403335571289,3.508488893508911,-0.11694031208753586,2.8883285522460938,-6.720926284790039,0.582824170589447,-2.75747013092041,-4.855855941772461,-1.6268775463104248],[-1.0765063762664795,1.1911706924438477,0.05927065759897232,-3.411992073059082,4.814349174499512,-0.34718650579452515,-0.1307850033044815,0.1143803820014,4.146856784820557,-1.29732346534729,-0.7344723343849182,5.285579204559326,-0.018701527267694473,-0.2508295178413391,-0.9046435952186584,4.129037380218506],[-1.2809113264083862,-1.4449635744094849,2.271193027496338,-0.12910477817058563,6.876473903656006,0.6558981537818909,1.3961561918258667,6.908117294311523,0.24075087904930115,-0.6112185120582581,-4.160481929779053,-2.852871894836426,1.8024667501449585,-0.2636365294456482,3.0803470611572266,-4.9081130027771],[5.8271803855896,0.20213432610034943,7.385825157165527,-0.23174993693828583,-5.733864784240723,-2.6078217029571533,-2.4120078086853027,-1.6062182188034058,5.045960426330566,-1.3170912265777588,-1.387258529663086,-3.661839723587036,-3.18536114692688,-2.86728572845459,-4.196836948394775,-1.8498191833496094],[-0.32782790064811707,-3.464289426803589,-5.009448051452637,3.140829563140869,1.143882155418396,0.5231223702430725,-0.20826467871665955,-2.4653563499450684,1.8376363515853882,-2.361140727996826,-0.33284690976142883,0.04998847842216492,-0.6483874917030334,-2.076688051223755,2.478530168533325,-0.557547926902771],[-4.4277424812316895,2.973013401031494,2.676034927368164,-1.3947181701660156,-0.9535573124885559,-5.985723495483398,-0.671042263507843,0.8727422952651978,-3.3953683376312256,3.073899030685425,1.5444061756134033,-0.7746183276176453,-0.20889319479465485,1.2446516752243042,2.3352346420288086,3.9750027656555176],[3.009300470352173,3.1263296604156494,-0.8575825095176697,0.2009153813123703,0.786536693572998,-0.323434442281723,0.45574039220809937,-2.2854056358337402,3.5417206287384033,-4.985864639282227,1.7653357982635498,0.5936655402183533,-3.1661627292633057,-0.31165048480033875,-0.1332612782716751,-4.037670135498047],[-5.469313144683838,6.169626235961914,-5.064154148101807,4.552380561828613,-2.1212568283081055,-3.4209110736846924,1.746843934059143,2.71730375289917,-1.1018455028533936,6.789639949798584,-0.846561074256897,4.101304531097412,-0.4883928596973419,2.070777416229248,2.9920971393585205,-3.788961887359619],[2.0435729026794434,-2.227651834487915,-2.495664596557617,4.987711429595947,-2.8148763179779053,2.114621877670288,-0.2447897493839264,7.574644088745117,1.606866717338562,-3.2957892417907715,-3.2701539993286133,-3.0745162963867188,-3.6295101642608643,-5.441485404968262,0.848416805267334,-0.5479719638824463],[-7.050495624542236,-2.1824750900268555,0.6286485195159912,0.2478768676519394,2.3084299564361572,0.8553142547607422,-1.5532091856002808,-3.6635677814483643,-2.713498115539551,0.9672974348068237,-2.528644323348999,3.668794631958008,2.832120180130005,4.10206937789917,-0.9336656928062439,-4.824185848236084],[2.647803544998169,-4.1596245765686035,0.814845621585846,-0.33041995763778687,-4.440488815307617,-0.6804028749465942,-0.49931028485298157,-5.186961650848389,-0.32277384400367737,0.935929536819458,-1.7561625242233276,-0.5265949368476868,1.3282597064971924,1.6518813371658325,2.1327016353607178,3.4962735176086426]],"biases":[0.07528328895568848,0.12268663942813873,-0.14599335193634033,-0.07328945398330688,0.13587434589862823,-0.04158783331513405,0.19650207459926605,-0.0992860421538353,0.07686109840869904,0.10676709562540054,0.13117516040802002,0.13291357457637787,0.1366093009710312,0.061498817056417465,-0.19988329708576202,0.06869321316480637]},{"weights":[[4.289714813232422,5.495669364929199,4.244329452514648,-13.060267448425293,6.111173629760742,0.21006551384925842,-6.027553081512451,-8.024595260620117,0.37705788016319275,-1.8052195310592651,5.294593334197998,-3.6881277561187744,1.9005283117294312,-1.5569086074829102,3.056626319885254,6.86295223236084],[-6.225979804992676,-2.5312094688415527,0.6234437823295593,8.935150146484375,6.229650497436523,1.8208897113800049,-8.805038452148438,-1.1820470094680786,2.1904866695404053,1.7958893775939941,0.49601638317108154,5.139413833618164,6.684628486633301,-3.6294472217559814,-0.4304101765155792,16.160140991210938],[0.38976413011550903,1.7478876113891602,-0.025008779019117355,-8.03593921661377,-0.8653921484947205,4.730872631072998,1.5531033277511597,-2.3626248836517334,-0.579549252986908,6.018039703369141,-3.415261745452881,6.049872398376465,-2.39694881439209,-1.8813964128494263,0.023199142888188362,-7.407620429992676],[-0.590998649597168,2.575904130935669,7.652131080627441,-4.564146518707275,-7.744510650634766,-1.342694878578186,5.259364128112793,-1.7893863916397095,-8.209712982177734,-3.9268953800201416,9.131521224975586,-7.207806587219238,2.960728168487549,6.5506110191345215,1.6387739181518555,-3.5283560752868652]],"biases":[-0.16962605714797974,-0.13088476657867432,0.06084821745753288,0.05260072648525238]}],"inputLookup":null,"inputLookupLength":0,"outputLookup":null,"outputLookupLength":0,"options":{"inputSize":18,"outputSize":4,"binaryThresh":0.5,"activation":"sigmoid","hiddenLayers":[16,16]},"trainOpts":{"activation":"sigmoid","iterations":20000,"errorThresh":0.005,"log":false,"logPeriod":10,"leakyReluAlpha":0.01,"learningRate":0.3,"momentum":0.1,"callbackPeriod":10,"timeout":"Infinity","beta1":0.9,"beta2":0.999,"epsilon":1e-8}}